tree
version=v3
num_class=1
num_tree_per_iteration=1
label_index=0
max_feature_idx=42
objective=binary sigmoid:1
feature_names=Column_0 Column_1 Column_2 Column_3 Column_4 Column_5 Column_6 Column_7 Column_8 Column_9 Column_10 Column_11 Column_12 Column_13 Column_14 Column_15 Column_16 Column_17 Column_18 Column_19 Column_20 Column_21 Column_22 Column_23 Column_24 Column_25 Column_26 Column_27 Column_28 Column_29 Column_30 Column_31 Column_32 Column_33 Column_34 Column_35 Column_36 Column_37 Column_38 Column_39 Column_40 Column_41 Column_42
feature_infos=[0:1.0000000000000002] [0:0.99999999999999989] none [0:1] [0:1] [0:1] none [0:1] [0:1] [0:1] [0:1] [0:1] [0:1] [0:0.99999999999999989] [0:1] [0:1] none none [0:1] [0:1] [0:1] [0:1] [0:1] [0:1] [0:1] none [0:1] [0:1] [0:1] [0:1] none none none none [0:0.99999999999999989] [0:1] [0:1] [0:1] [0:1] none [0:1] [0:1] none
tree_sizes=2903 2927 2951 2943 2944 2921 2948 2947 2936 2896 2936 2948 2954 2976 2930 2941 2972 2976 2944 2965 2959 2987 2960 2987 2972 2954 2953 2977 2954 2970 2913 2954 2969 2918 2948 2944 2935 2931 2964 2983 2953 2967 2907 2917 2925 2930 2920 2969 2934 2908 2942 2935 2961 2923 2944 2991 2936 2942 2964 2919 2940 2949 2934 2911 2956 2911 2921 2935 2937 2911 2967 2904 2921 2965 2955 2923 2922 2969 2949 2932 2979 2905 2970 2931 2919 2912 2947 2949 2949 2935 2949 2944 2942 2956 2996 2894 2927 2955 2967 2947

Tree=0
num_leaves=26
num_cat=0
split_feature=1 27 20 28 1 12 41 12 12 12 1 14 12 12 12 12 12 29 12 12 12 12 34 13 22
split_gain=167.667 85.3577 15.0267 14.6247 15.5201 11.3223 11.2882 11.6709 10.6931 10.081 9.48872 9.17526 8.66722 7.56514 12.8395 6.80872 6.72649 6.6043 5.75734 12.5991 5.6405 9.4642 5.36102 5.16565 4.87236
threshold=0.68750000000000011 0.3000000000000001 1.0000000180025095e-35 1.0000000180025095e-35 0.47916666666666669 0.0018886426924574066 1.0000000180025095e-35 0.0004732460999490972 0.0026632706530526694 0.00082354702518190267 0.89583333333333337 1.0000000180025095e-35 0.00029994460580291647 0.0031724406383806928 0.0016176602688864272 0.00048681767823457198 0.0038042339132257391 1.0000000180025095e-35 0.00042691708836123003 0.00043418570530287152 0.00048220648561248018 0.0013496721262388838 0.58333333333333337 9.6041040628987788e-05 1.0000000180025095e-35
decision_type=2 2 2 2 2 2 2 2 2 2 2 2 2 2 2 2 2 2 2 2 2 2 2 2 2
left_child=1 2 12 4 6 11 16 -8 -5 23 13 -4 -1 14 17 -9 -3 -2 -14 -20 -21 -22 -17 -6 -11
right_child=10 3 5 8 9 -7 7 15 -10 24 -12 -13 18 -15 -16 22 -18 -19 19 20 21 -23 -24 -25 -26
leaf_value=-1.0367114125381578 -1.0300795513803569 -1.0566912851556163 -1.0617313701455615 -1.0622283719929417 -1.0407217998709759 -1.1087820584340629 -1.0154190308177318 -1.0958361260025515 -1.1227109181975934 -1.0276957222841967 -1.0124860696998446 -1.1097374670998608 -1.1236484439598087 -1.0950224072316619 -0.98168491777444311 -1.0474245762284793 -1.107769957912458 -1.0940023231272709 -1.0616292110358716 -1.1178861553948345 -1.0779623435666217 -1.1165776521128385 -0.99586188458424141 -1.0821265296540368 -0.99733120990858826
leaf_weight=26.515971601009369 483.43611991405487 1261.4300982654095 504.76418402791023 481.32252797484398 417.33833563327789 68.019231498241425 130.08197662234306 28.437418818473816 31.127444922924042 181.96105149388313 850.04824900627136 43.232562392950058 63.215613454580307 16.908735513687134 55.914114028215408 713.62549656629562 26.323826879262924 16.716590791940689 109.71463611721992 121.43546414375305 174.85169678926468 99.7231105864048 20.751629948616028 32.472457975149155 74.552152037620544
leaf_count=138 2516 6565 2627 2505 2172 354 677 148 162 947 4424 225 329 88 291 3714 137 87 571 632 910 519 108 169 388
internal_value=-1.04873 -1.05846 -1.08125 -1.05034 -1.04757 -1.0703 -1.05174 -1.0431 -1.0659 -1.03469 -1.01919 -1.06552 -1.09258 -1.02914 -1.02713 -1.04783 -1.05774 -1.03222 -1.09518 -1.09162 -1.09993 -1.09199 -1.04597 -1.04371 -1.01887
internal_weight=0 4610.9 1211.47 3399.42 2886.97 616.016 2180.65 892.897 512.45 706.324 1423.02 547.997 595.456 572.976 556.067 762.815 1287.75 500.153 568.941 505.725 396.01 274.575 734.377 449.811 256.513
internal_count=31403 23997 6305 17692 15025 3206 11349 4647 2667 3676 7406 2852 3099 2982 2894 3970 6702 2603 2961 2632 2061 1429 3822 2341 1335
is_linear=0
shrinkage=1


Tree=1
num_leaves=26
num_cat=0
split_feature=35 8 35 8 35 35 24 12 5 5 35 35 36 9 5 9 0 15 35 27 34 35 12 35 12
split_gain=275.63 273.223 58.6858 53.6305 51.99 31.696 23.655 18.4403 16.0852 15.8263 15.0891 18.1812 19.461 13.4246 12.3013 12.0321 10.3774 9.79066 10.4635 14.9077 9.72219 9.68216 9.51253 12.4033 12.4668
threshold=0.42021276595744689 1.0000000180025095e-35 0.27127659574468094 1.0000000180025095e-35 0.52659574468085113 0.14361702127659579 1.0000000180025095e-35 0.0012574707309039735 1.0000000180025095e-35 0.23333333333333336 0.78191489361702138 0.50531914893617036 1.0000000180025095e-35 0.3000000000000001 0.10000000000000002 0.3000000000000001 0.64726294525890526 1.0000000180025095e-35 0.3563829787234043 1.0000000180025095e-35 0.58333333333333337 0.80319148936170226 0.00053448663053567698 0.47340425531914898 0.0012579123873401805
decision_type=2 2 2 2 2 2 2 2 2 2 2 2 2 2 2 2 2 2 2 2 2 2 2 2 2
left_child=2 6 5 -4 15 8 10 14 -1 13 11 22 -13 17 -7 -3 -16 18 19 -5 -21 -6 -2 -24 -25
right_child=1 4 3 9 21 7 -8 -9 -10 -11 -12 12 -14 -15 16 -17 -18 -19 -20 20 -22 -23 23 24 -26
leaf_value=0.054126901572699372 0.039539706233159125 -0.034325639896086772 0.045754985344076265 -0.051275297731743545 -0.066761896665586323 0.015952116738288131 -0.023257133414740842 0.0520861557524612 0.12876534383733981 0.043856017259078194 0.11933337598494975 0.0051163297009770951 0.053464164223809077 0.020904825326664728 0.058713085617585849 0.0049367614892321734 0.0116729481518845 -0.029199487196424314 -0.014645675666314027 0.0052159951018872878 0.081666670313896253 0.0064368929930280804 0.060246853943457315 0.19966327088140659 0.055751869282366529
leaf_weight=178.40145392715931 61.911206543445587 802.4193993806839 278.08360514044762 46.705307811498642 825.76250095665455 1054.5986656248569 67.14921972155571 213.97893643379211 34.469624996185303 73.719941988587379 22.853034898638725 210.76994819939137 137.64722810685635 199.16498027741909 136.6133741736412 86.433867231011391 71.466366738080978 171.70318058133125 531.77890753746033 722.46387016773224 17.027713656425476 18.459166571497917 42.485985964536667 16.726526588201526 9.4249373823404294
leaf_count=925 323 4179 1446 244 4335 5471 350 1110 179 383 120 1108 720 1034 709 450 371 892 2763 3749 88 97 221 87 49
internal_value=0 -0.0276483 0.0163545 0.00494114 -0.047388 0.0301395 0.0324777 0.0249384 0.0662157 -0.00149781 0.0399368 0.0361473 0.0242186 -0.00347792 0.0203373 -0.030507 0.0425597 -0.00673821 -0.00381154 0.00351583 0.00697719 -0.0651607 0.0679788 0.0936222 0.147821
internal_weight=0 2302.04 3730.18 2040.65 1733.07 1689.53 568.968 1476.66 212.871 1762.56 501.819 478.966 348.417 1688.84 1262.68 888.853 208.08 1489.68 1317.98 786.197 739.492 844.222 130.549 68.6374 26.1515
internal_count=31403 12039 19364 10599 9061 8765 2978 7661 1104 9153 2628 2508 1828 8770 6551 4629 1080 7736 6844 4081 3837 4432 680 357 136
is_linear=0
shrinkage=0.1


Tree=2
num_leaves=26
num_cat=0
split_feature=35 8 35 35 35 8 36 12 41 9 13 35 35 35 21 12 26 9 9 35 36 26 12 12 12
split_gain=232.135 240.489 59.5204 35.7717 20.3525 34.5913 19.0795 15.0078 12.7383 12.1656 10.8791 10.7014 10.5299 10.819 9.78546 9.39257 8.86497 8.08492 8.08417 8.03356 7.0224 6.9511 6.93496 7.29394 7.59416
threshold=0.39893617021276601 1.0000000180025095e-35 0.48404255319148942 0.14361702127659579 0.27127659574468094 1.0000000180025095e-35 1.0000000180025095e-35 0.00088192801748660063 1.0000000180025095e-35 0.3000000000000001 0.0011500226402667436 0.57978723404255328 0.50531914893617036 0.79255319148936176 0.0034166666666666672 0.0006858101027038358 0.47222222222222227 0.3000000000000001 0.3000000000000001 0.80319148936170226 1.0000000180025095e-35 0.083333333333333343 0.0031724406383806928 0.00080254214450399747 0.00080863550618319013
decision_type=2 2 2 2 2 2 2 2 2 2 2 2 2 2 2 2 2 2 2 2 2 2 2 2 2
left_child=3 6 9 15 7 -6 12 -5 18 20 -8 17 16 -14 21 -1 -2 22 -7 -13 -3 -10 23 -4 -25
right_child=1 2 11 4 5 8 10 -9 14 -11 -12 19 13 -15 -16 -17 -18 -19 -20 -21 -22 -23 -24 24 -26
leaf_value=0.043430593418883591 0.12449677214947126 -0.031678122468019689 -0.058412207789629522 0.016539724384769978 0.042743326430191374 -0.009078092522082656 0.048033181616877495 0.038727658932718144 -0.026940236135157114 0.018807405552351067 0.14109503796396403 -0.067880876218968086 -0.00016025156349842802 0.097817983925096594 -0.052851499467651386 0.090088175603001946 0.031424797173659057 -0.010406793802943079 0.019882877134787241 0.00049469357049398781 -0.011428445075947065 0.018193014588036457 -0.097635611149790733 0.043780295107994874 -0.038392542505438637
leaf_weight=159.55446395277977 11.072259977459906 423.61031959950924 267.86332978308201 1062.7013397663832 235.6282554268837 827.26263761520386 222.59769654273987 427.58619533479214 36.385563045740128 75.174783781170845 13.32133227586746 515.09762978553772 232.88288353383541 11.842560708522795 21.804492399096489 59.196276649832726 136.09318396449089 57.527937114238739 109.08515886962414 17.75810581445694 287.67522449791431 546.65655121207237 28.793289035558701 11.840914428234099 221.68196122348309
leaf_count=803 56 2234 1435 5462 1199 4308 1136 2179 192 389 68 2800 1221 59 113 297 693 305 561 93 1517 2830 156 63 1187
internal_value=0 -0.0228614 -0.0405345 0.0169093 0.0142879 0.007059 0.030821 0.0229062 0.00160294 -0.0194454 0.0532906 -0.0553353 0.0172927 0.00457856 0.0129148 0.0560594 0.0384314 -0.0460266 -0.00570347 -0.065601 -0.0234891 0.0153754 -0.0498904 -0.0471473 -0.0342233
internal_weight=0 2534.83 1907.02 3485.86 3267.11 1776.82 627.81 1490.29 1541.19 786.46 235.919 1120.56 391.891 244.725 604.847 218.751 147.165 587.707 936.348 532.856 711.286 583.042 530.179 501.386 233.523
internal_count=31356 13412 10179 17944 16844 9203 3233 7641 8004 4140 1204 6039 2029 1280 3135 1100 749 3146 4869 2893 3751 3022 2841 2685 1250
is_linear=0
shrinkage=0.1


Tree=3
num_leaves=26
num_cat=0
split_feature=4 27 4 12 27 24 5 0 0 28 5 0 12 12 0 27 12 24 27 5 12 21 0 9 12
split_gain=97.5791 37.3096 20.7567 20.4137 14.2633 14.0663 10.2396 9.98045 9.95175 9.9478 9.85549 15.4814 11.3854 10.0566 8.85092 8.24585 8.05617 8.05506 7.67149 6.91001 9.35252 6.70282 7.29053 6.65297 8.3082
threshold=0.2142857142857143 0.3000000000000001 0.6428571428571429 0.00088192801748660063 1.0000000180025095e-35 1.0000000180025095e-35 0.16666666666666671 0.29271585431708641 0.051011020220404414 0.15625000000000003 0.10000000000000002 0.59116182323646482 0.00048060454531844175 0.00051206695212144824 0.14689293785875721 0.70000000000000018 0.00025264993861724109 1.0000000180025095e-35 0.70000000000000018 0.10000000000000002 0.00050809952989789512 0.00041666666666666675 0.53259065181303644 0.3000000000000001 0.0033588346258645991
decision_type=2 2 2 2 2 2 2 2 2 2 2 2 2 2 2 2 2 2 2 2 2 2 2 2 2
left_child=3 4 6 15 19 8 9 -4 -5 23 12 -12 -9 -14 -10 21 -17 -18 -8 -2 -21 -1 -23 24 -3
right_child=1 2 7 5 -6 -7 18 10 14 -11 11 -13 13 -15 -16 16 17 -19 -20 20 -22 22 -24 -25 -26
leaf_value=0.0059653696833098773 -0.010772163712678027 -0.0060798657744078298 -0.006346513862516525 -0.050218473051753858 -0.031203602670224768 0.056420673010458049 -0.00024429382263668617 -0.023385684899426967 0.077216576306699591 -0.023238598714491188 0.11812157417157124 0.016850701537378752 0.12872165300122021 0.025877107892141194 0.021172460300978517 -0.037841811552394217 0.035870034495126234 -0.0008615880416449718 0.034849891987623824 -0.046471216614864634 0.065528820559138889 0.0040991455097547751 0.091859385321196085 0.01040282788708881 -0.043298648368883058
leaf_weight=932.35138453543186 199.67908765375614 1807.128201559186 105.00744724273682 17.653893604874611 803.37325143814087 202.85152116417885 169.60284878313541 47.26629164814949 31.469338268041611 362.61305971443653 29.078581854701042 31.424360409379005 10.218823388218878 137.46912734210491 270.4812505543232 19.389366075396538 289.48097188770771 75.173612087965012 98.412195160984993 10.158020079135893 27.978309288620949 18.579495921730995 19.329774081707001 238.98988297581673 62.04240594804287
leaf_count=4823 1052 9372 542 92 4355 1034 875 245 163 1888 149 162 53 712 1410 100 1494 384 508 53 147 96 100 1216 331
internal_value=0 -0.00845775 -0.0029555 0.0190306 -0.0248355 0.0358227 -0.00592462 0.019602 0.0227474 -0.00793861 0.0302707 0.0655329 0.0193242 0.0329972 0.0270154 0.0125521 0.0249554 0.0282961 0.0126397 -0.00332041 0.0356805 0.00764208 0.0488637 -0.00530665 -0.00731557
internal_weight=0 4140.44 3099.25 1876.76 1041.19 522.456 2738.79 360.465 319.604 2470.77 255.457 60.5029 194.954 147.688 301.951 1354.3 384.044 364.655 268.015 237.815 38.1363 970.261 37.9093 2108.16 1869.17
internal_count=31356 21660 16053 9696 5607 2699 14190 1863 1665 12807 1321 311 1010 765 1573 6997 1978 1878 1383 1252 200 5019 196 10919 9703
is_linear=0
shrinkage=0.1


Tree=4
num_leaves=26
num_cat=0
split_feature=35 8 35 35 8 4 10 35 24 5 40 5 10 10 36 35 35 24 4 4 10 10 40 24 22
split_gain=178.332 190.22 36.2595 35.7006 34.9688 22.8919 20.1539 20.2626 17.8128 16.8115 12.7276 10.573 10.2909 10.2668 9.43804 9.39565 9.96178 9.24936 9.2024 8.63614 7.80545 7.56833 7.28094 6.9776 8.26596
threshold=0.42021276595744689 1.0000000180025095e-35 0.27127659574468094 0.52659574468085113 1.0000000180025095e-35 0.2142857142857143 1.0000000180025095e-35 0.1223404255319149 1.0000000180025095e-35 0.16666666666666671 1.0000000180025095e-35 1.0000000180025095e-35 0.012500000000000002 0.062500000000000014 1.0000000180025095e-35 0.50531914893617036 0.79255319148936176 1.0000000180025095e-35 0.2142857142857143 0.2142857142857143 0.047500000000000007 0.082500000000000018 1.0000000180025095e-35 1.0000000180025095e-35 1.0000000180025095e-35
decision_type=2 2 2 2 2 2 2 2 2 2 2 2 2 2 2 2 2 2 2 2 2 2 2 2 2
left_child=2 8 6 13 23 10 -1 -8 11 17 -6 14 -9 19 15 18 -17 21 -2 22 -16 -7 -3 24 -4
right_child=1 3 4 -5 5 9 7 12 -10 -11 -12 -13 -14 -15 20 16 -18 -19 -20 -21 -22 -23 -24 -25 -26
leaf_value=-0.0080331462120760196 0.12832473970677513 0.035223339199259636 0.036824836066497398 -0.055244034444661416 0.037336154002849578 -0.0033820570161264187 0.080925082852256247 0.014116682303183845 -0.021873491821829402 0.020951789345112312 0.0050846617453594789 0.0057700626113923181 0.031333829761579841 -0.041115846145126006 0.038912770391832247 0.0099340717011950387 0.11385103949320297 -0.028113728665290001 0.04054304555798207 -0.024983884129665204 0.083951199784509004 -0.032695188505048753 -0.012883744998503172 0.018942701715994395 0.088452041732975689
leaf_weight=178.4298579543829 14.945976391434668 47.857053875923157 119.44380243122578 784.57611346244812 182.81283956766129 637.32441407442093 67.769139334559441 548.66500341892242 67.010527357459068 164.00054915249348 370.21107718348503 112.3010315746069 946.02915599942207 290.10738794505596 82.827552974224091 165.13965448737144 9.7727302461862546 305.77782045304775 59.653911232948303 434.70080141723156 71.992303356528282 102.21871410310268 91.810957804322243 127.63106639683247 41.930004417896271
leaf_count=901 74 253 598 4422 933 3329 331 2769 348 840 1913 574 4765 1562 413 871 47 1593 297 2339 360 537 487 636 210
internal_value=0 -0.0224337 0.0131891 -0.0397987 0.00418072 -0.00110617 0.0238036 0.0274397 0.0266289 -0.00881369 0.0157471 0.0329211 0.0250142 -0.0257801 0.0404607 0.0284213 0.0157436 -0.0134842 0.0581381 -0.0180332 0.0598599 -0.0074345 0.00359575 0.0364222 0.050243
internal_weight=0 2232.7 3792.24 1649.05 2051.35 1762.35 1740.89 1562.46 583.644 1209.32 553.024 516.633 1494.69 864.476 404.332 249.512 174.912 1045.32 74.5999 574.369 154.82 739.543 139.668 289.005 161.374
internal_count=31402 12047 19355 9063 10589 9145 8766 7865 2984 6299 2846 2636 7534 4641 2062 1289 918 5459 371 3079 773 3866 740 1444 808
is_linear=0
shrinkage=0.1


Tree=5
num_leaves=26
num_cat=0
split_feature=4 4 26 15 9 4 4 5 0 0 0 0 9 26 5 38 0 21 5 5 0 28 38 15 0
split_gain=69.1144 22.7874 14.2042 11.2402 10.2926 12.5196 12.4103 9.49284 10.3728 12.308 8.68557 7.1089 6.98645 6.57552 7.51848 6.39345 9.06608 6.11257 6.27975 6.10686 5.87489 5.69096 6.80158 4.98338 4.73284
threshold=0.2142857142857143 0.6428571428571429 0.58333333333333337 1.0000000180025095e-35 0.3000000000000001 0.50000000000000011 0.35714285714285715 0.10000000000000002 0.3233864677293547 0.59116182323646482 0.91756835136702752 0.79647592951859048 0.3000000000000001 0.47222222222222227 0.10000000000000002 1.0000000180025095e-35 0.58704174083481686 0.0059166666666666682 0.16666666666666671 1.0000000180025095e-35 0.80810616212324249 0.65625000000000011 1.0000000180025095e-35 1.0000000180025095e-35 0.57156143122862468
decision_type=2 2 2 2 2 2 2 2 2 2 2 2 2 2 2 2 2 2 2 2 2 2 2 2 2
left_child=21 2 3 4 6 13 17 12 -9 -10 -8 -11 -3 14 -6 16 -14 18 -2 -12 -7 24 -23 -4 -1
right_child=1 7 23 -5 5 20 10 8 9 11 19 -13 15 -15 -16 -17 -18 -19 -20 -21 -22 22 -24 -25 -26
leaf_value=0.013191957961754777 -0.0061265852473694439 -0.00057074611174302717 -0.026112970250486773 -0.025544088011263063 0.014238165549668478 0.080985325686135604 -0.028674414763997777 -0.0060707778380819609 0.10778429895089121 -0.025884107988177224 -0.0013421102923115097 0.061786173029256021 0.025091785971877653 -0.0028835849135812426 0.10938828738798159 0.01145255166124334 0.15157383457246465 -0.039559960374625988 0.012205250407854626 0.092533862403581482 -0.010174495133771463 -0.0055288073383152024 0.035646588400123691 -0.073947609139796047 0.024035200415486187
leaf_weight=922.77715885639191 1993.5333417952061 284.3015034943819 315.96480336785316 327.00239257514477 31.252658382058144 33.004722654819489 373.66072797775269 32.323068454861641 32.226412013173103 16.394903153181076 27.584442406892776 21.200829356908798 13.615759879350664 256.54958443343639 11.319473028182982 38.470037326216698 9.7248566895723325 50.61169108748436 206.17464527487755 9.2490259408950788 8.9821351170539838 215.72005970776081 49.280346661806107 23.409310936927795 714.57418730854988
leaf_count=4695 10502 1494 1689 1730 161 176 2049 167 158 85 152 109 70 1315 57 197 50 268 1063 49 49 1110 252 125 3630
internal_value=0 -0.00732376 -0.00992469 -0.0079376 -0.0060195 0.0103337 -0.00811617 0.0139595 0.0407481 0.0624308 -0.0241067 0.0235385 0.0060518 0.00315396 0.0395518 0.0365223 0.0778164 -0.00519897 -0.0044081 0.0222141 0.0614693 0.0157241 0.00212602 -0.0294143 0.0179245
internal_weight=0 4116.56 3668.3 3328.92 3001.92 341.109 2660.81 448.257 102.145 69.8221 410.494 37.5957 346.112 299.122 42.5721 61.8107 23.3406 2250.32 2199.71 36.8335 41.9869 1902.35 265 339.374 1637.35
internal_count=31402 21715 19385 17571 15841 1758 14083 2330 519 352 2250 194 1811 1533 218 317 120 11833 11565 201 225 9687 1362 1814 8325
is_linear=0
shrinkage=0.1


Tree=6
num_leaves=26
num_cat=0
split_feature=35 35 35 35 12 35 12 0 12 9 12 12 41 21 12 12 24 41 21 12 21 35 41 26 26
split_gain=139.808 26.1431 18.5805 19.7408 12.8816 11.622 10.3357 10.2376 10.2326 10.0061 8.81164 13.4451 8.20642 10.8178 7.85331 7.75257 7.55198 7.10591 10.2062 6.61097 7.61088 7.50879 7.35779 6.53174 6.30549
threshold=0.42021276595744689 0.1542553191489362 0.80319148936170226 0.50531914893617036 0.00099719286163427873 0.27127659574468094 0.00043418570530287152 0.80398607972159453 0.0012574707309039735 0.3000000000000001 0.00042691708836123003 0.00029994460580291647 1.0000000180025095e-35 0.00091666666666666687 0.00033461089319399944 0.00028370811749558344 1.0000000180025095e-35 1.0000000180025095e-35 0.0034166666666666672 0.0004641285145372339 0.0025416666666666673 0.29255319148936171 1.0000000180025095e-35 0.41666666666666669 0.47222222222222227
decision_type=2 2 2 2 2 2 2 2 2 2 2 2 2 2 2 2 2 2 2 2 2 2 2 2 2
left_child=1 4 3 -2 23 8 10 17 -3 -8 11 15 13 -12 -9 -5 -6 -7 -19 21 24 -16 -23 -1 -21
right_child=2 5 -4 6 16 7 9 14 -10 -11 12 -13 -14 -15 19 -17 -18 18 -20 20 -22 22 -24 -25 -26
leaf_value=0.075343923415596703 -0.0099366500963167445 0.012259382888899613 0.051802614229243031 -0.01749003147220414 0.050174077855896664 -0.0045112347034543549 -0.039429615184743083 -0.058309549634308247 0.03563824675376883 -0.0018608309680444427 -0.022586713221179222 -0.058217517982496525 0.019360046326833455 0.086614817704176561 -0.032559068712250144 0.073234994501382739 0.14437858564904713 0.01156504990085722 -0.048992524482140053 -0.026411343225251162 0.09236753399241357 0.044584467301637912 0.13174049984106392 0.026615297784520993 0.01735538576890263
leaf_weight=30.932713598012924 886.80821488797665 1220.6896850019693 35.23851053416729 36.982215583324432 17.11922062933445 1016.7558779418468 756.29515445232391 12.845798969268797 221.1777952760458 78.264416605234146 198.29739625751972 98.533837735652924 84.561826899647713 9.5044870823621732 9.6043012589216215 12.635672986507414 16.973432496190071 623.2956095635891 29.128534227609634 37.565620914101601 12.240770101547239 46.470064133405685 12.252780601382254 249.80305768549442 265.56363052129745
leaf_count=150 4733 6127 179 206 82 5261 4268 66 1083 429 1085 558 458 51 49 69 80 3192 153 195 63 239 62 1213 1364
internal_value=0 0.0114339 -0.0202217 -0.021396 0.0390388 0.00895606 -0.0293654 0.00414658 0.015846 -0.0359072 -0.0169705 -0.0368395 -0.00690005 -0.0175891 0.01859 0.00560178 0.0970927 0.00071492 0.00886043 0.0211661 0.0150536 0.0493702 0.0627803 0.0319866 0.0119295
internal_weight=0 3822.42 2197.12 2161.88 314.828 3507.59 1275.08 2065.72 1441.87 834.56 440.515 148.152 292.364 207.802 396.543 49.6179 34.0927 1669.18 652.424 383.697 315.37 68.3271 58.7228 280.736 303.129
internal_count=31415 19379 12036 11857 1525 17854 7124 10644 7210 4697 2427 833 1594 1136 2038 275 162 8606 3345 1972 1622 350 301 1363 1559
is_linear=0
shrinkage=0.1


Tree=7
num_leaves=26
num_cat=0
split_feature=1 8 4 24 1 4 8 41 15 34 36 4 37 0 4 34 0 9 9 15 26 26 4 1 4
split_gain=113.899 87.2619 38.2786 27.7483 22.7735 18.4945 17.7661 12.055 10.7549 12.7716 10.3971 10.3628 9.86507 9.77472 9.36846 8.94299 8.0088 7.18523 7.05837 6.22272 5.89384 5.83406 5.34185 5.17681 9.46552
threshold=0.68750000000000011 1.0000000180025095e-35 0.2142857142857143 1.0000000180025095e-35 0.47916666666666669 0.2142857142857143 1.0000000180025095e-35 1.0000000180025095e-35 1.0000000180025095e-35 0.58333333333333337 1.0000000180025095e-35 0.6428571428571429 1.0000000180025095e-35 0.89818796375927523 0.50000000000000011 1.0000000180025095e-35 0.64726294525890526 0.3000000000000001 1.0000000180025095e-35 1.0000000180025095e-35 0.58333333333333337 0.58333333333333337 0.6428571428571429 0.89583333333333337 0.7857142857142857
decision_type=2 2 2 2 2 2 2 2 2 2 2 2 2 2 2 2 2 2 2 2 2 2 2 2 2
left_child=1 3 7 10 11 16 -7 12 9 18 20 14 -3 -5 21 -9 -2 -16 -8 -13 -1 -4 -6 -20 -25
right_child=5 2 4 13 22 6 8 15 -10 -11 -12 19 -14 -15 17 -17 -18 -19 23 -21 -22 -23 -24 24 -26
leaf_value=0.026408868672212284 0.029957958542852565 -0.0046938751192017927 -0.024372940866230111 -0.015612694202616404 -0.0078298270918976572 0.047250916293027009 0.091023155433207395 0.0074442006487762391 -0.024190422677492718 0.096915461165769615 0.049783277983984034 -0.00029274104721399482 -0.054879932657263736 0.055932892489739365 -0.053477474718569076 0.048038586731488545 0.055739620011605255 0.004968803433123628 -0.00043609344221189018 -0.061610035313719773 -0.017834196074172522 -0.04601222124290763 0.021223474358517562 0.012799060261254065 0.067758588871251732
leaf_weight=348.57863385975361 332.69900797307491 771.87840762734413 1326.758352547884 200.08257588744164 507.40318697690964 150.66628213226795 11.011739671230314 366.34005101025105 83.391457736492157 18.012880027294159 222.72305756807327 188.43611633777618 41.265873819589615 21.108071029186249 215.45682856440544 63.7197585105896 189.07531236112118 23.289118021726608 269.11125694215298 18.146458178758621 32.939785286784172 137.58606417477131 72.294925332069397 368.47073212265968 34.25825771689415
leaf_count=1792 1652 3956 7167 1012 2716 747 57 1842 440 93 1098 993 217 106 1264 319 932 127 1406 98 170 759 374 1908 170
internal_value=0 -0.0079034 -0.0144102 0.0215194 -0.0215667 0.024218 0.0157993 -7.96717e-05 0.00975624 0.0137962 0.0326128 -0.0268365 -0.00724149 -0.00878241 -0.0294022 0.0134603 0.0393016 -0.0477736 0.0116027 -0.00568186 0.0225874 -0.0264065 -0.00420551 0.0103001 0.0174757
internal_weight=0 4558.01 3732.58 825.432 2489.37 1456.7 934.923 1243.2 784.256 700.865 604.241 1909.67 813.144 221.191 1703.09 430.06 521.774 238.746 682.852 206.583 381.518 1464.34 579.698 671.84 402.729
internal_count=31415 24010 19832 4178 13498 7405 4821 6334 4074 3634 3060 10408 4173 1118 9317 2161 2584 1391 3541 1091 1962 7926 3090 3484 2078
is_linear=0
shrinkage=0.1


Tree=8
num_leaves=26
num_cat=0
split_feature=1 4 4 1 10 40 10 15 4 40 0 0 10 19 0 5 10 0 37 10 4 10 19 10 0
split_gain=89.1693 20.2136 16.2161 15.3066 14.7579 11.0164 8.32557 8.30188 8.11587 8.73395 10.6817 7.13306 6.94891 8.06328 5.73697 5.69854 5.21485 5.19232 5.16573 5.048 4.79125 5.08151 4.70121 4.68071 4.47439
threshold=0.68750000000000011 0.2142857142857143 0.2142857142857143 0.47916666666666669 0.077500000000000013 1.0000000180025095e-35 1.0000000180025095e-35 1.0000000180025095e-35 0.6428571428571429 1.0000000180025095e-35 0.29657593151863043 0.64726294525890526 0.032500000000000008 1.0000000180025095e-35 0.85092701854037089 0.23333333333333336 0.072500000000000023 0.12658253165063307 1.0000000180025095e-35 0.0075000000000000006 0.6428571428571429 0.022500000000000003 1.0000000180025095e-35 0.077500000000000013 0.63169263385267715
decision_type=2 2 2 2 2 2 2 2 2 2 2 2 2 2 2 2 2 2 2 2 2 2 2 2 2
left_child=1 5 6 8 7 19 -2 -4 -3 10 -10 -8 -13 14 16 18 -14 -6 23 -1 -5 -22 -21 -7 -9
right_child=2 3 4 20 17 15 11 24 9 -11 -12 12 13 -15 -16 -17 -18 -19 -20 22 21 -23 -24 -25 -26
leaf_value=0.0012659380620867276 -0.0041435013874296604 -0.017595540264239144 0.022531242918605827 -0.0019535483368210132 -0.058438393154110771 0.00060379497187756296 0.029686900281033247 -0.030062830529416024 -0.024541201954638957 -0.014340193874995128 0.044209703887312733 0.07283546150183548 0.039845366162293457 -0.016775581702315006 0.018809757402488272 0.052934351800865198 0.12242003017766233 -0.0065168690213480472 -0.037591250744310876 0.014254506544702499 0.049216046805167307 0.0004410684014411656 0.040919048844361997 -0.017886132073971706 0.022492647487130979
leaf_weight=173.17355795204639 49.352498471736908 2161.2396927922964 688.72488617897034 625.44591161608696 22.030967459082603 681.20739239454269 304.85725979506969 49.390943750739098 32.566653221845627 149.54284618794918 73.768953517079353 97.508766636252403 14.801361739635469 23.08733081817627 26.112228661775589 17.383517801761627 15.887811928987501 153.52775511145592 45.790048032999039 210.9915426671505 40.116593658924103 45.738253012299538 96.382004037499428 171.33346779644489 24.093129232525826
leaf_count=869 243 11761 3501 3316 115 3472 1493 258 171 792 378 468 71 111 126 89 77 803 245 1049 204 234 478 886 126
internal_value=0 -0.00734188 0.0210117 -0.0118072 0.013101 0.00266252 0.0349651 0.0191219 -0.0156017 0.00123651 0.0231482 0.0389686 0.0549158 0.0330362 0.0532932 -0.00377159 0.0826141 -0.013036 -0.00486957 0.0149244 0.00108634 0.0232387 0.0226176 -0.00311138 -0.0128233
internal_weight=0 4524.68 1469.37 3128.42 937.768 1396.26 531.607 762.209 2417.12 255.878 106.336 482.255 177.397 79.8887 56.8014 915.714 30.6892 175.559 898.331 480.547 711.301 85.8548 307.374 852.541 73.4841
internal_count=31336 23944 7392 16856 4803 7088 2589 3885 13102 1341 549 2346 853 385 274 4692 148 918 4603 2396 3754 438 1527 4358 384
is_linear=0
shrinkage=0.1


Tree=9
num_leaves=26
num_cat=0
split_feature=1 4 4 1 5 4 0 0 28 15 0 0 23 0 0 0 15 5 1 4 0 0 0 0 1
split_gain=71.7559 16.5149 12.7463 12.5754 7.8177 6.67182 6.17552 6.08206 5.98599 5.48054 5.32968 6.26714 7.04018 5.43819 6.2169 7.84339 4.80833 4.78548 4.6494 6.5076 12.6368 6.91968 5.63343 8.67177 4.61022
threshold=0.68750000000000011 0.2142857142857143 0.2142857142857143 0.47916666666666669 0.23333333333333336 0.6428571428571429 0.6946638932778656 0.64726294525890526 1.0000000180025095e-35 1.0000000180025095e-35 0.15093301866037326 0.26121522430448618 1.0000000180025095e-35 0.44188883777675564 0.37053741074821506 0.3392367847356948 1.0000000180025095e-35 0.10000000000000002 0.89583333333333337 0.50000000000000011 0.23021460429208587 0.68264365287305762 0.63982279645592921 0.32763655273105469 0.89583333333333337
decision_type=2 2 2 2 2 2 2 2 2 2 2 2 2 2 2 2 2 2 2 2 2 2 2 2 2
left_child=1 -1 7 5 9 -3 -6 10 17 18 -2 12 -12 14 15 -13 -7 -5 -4 22 -21 -22 23 -20 -15
right_child=2 3 4 8 6 16 -8 -9 -10 -11 11 13 -14 24 -16 -17 -18 -19 19 20 21 -23 -24 -25 -26
leaf_value=0.0023878910642739556 0.046719437436830082 -0.015986617805070116 0.0033331490599001301 0.00036055925931139732 0.029255341954191771 0.0050723306601979526 0.11688534845736892 0.044964497705551415 -0.020296910451105359 -0.012810589646189564 -0.044054205486107639 0.042268506848531985 0.026311920674109913 0.032261677077142677 0.071206926244688398 -0.039820120178125085 -0.046162223263394031 0.02238982542764012 0.022665910262140248 -0.029085885786745848 0.091075202351563328 0.024729094267762441 0.028841502783856866 -0.014624309127716312 -0.0090889057412915225
leaf_weight=1397.673330232501 73.760369822382927 2141.9373237639666 327.92791901528835 475.62795726954937 26.093453392386436 236.06838043034077 11.643442779779432 197.41698847711086 111.54938186705112 95.445323586463928 32.07847498357296 44.10237056016922 25.5281001329422 47.799431517720222 40.867007747292519 15.806151345372198 19.857886269688606 124.42296139895916 126.24654759466648 18.430496960878372 39.435115128755569 26.189699828624725 148.62963591516018 123.2221792191267 61.817427799105644
leaf_count=7088 357 11761 1680 2512 130 1231 57 932 602 506 157 214 123 232 198 77 110 640 636 94 197 131 750 622 299
internal_value=0 -0.00664051 0.0187217 -0.0106989 0.0117101 -0.0141633 0.056309 0.0309871 0.000974132 0.00985087 0.0229113 0.0163564 -0.0128613 0.0243592 0.0411286 0.0206003 0.00109456 0.00492942 0.0125216 0.0187697 0.044056 0.0646069 0.0134292 0.00424441 0.00893687
internal_weight=0 4507.14 1482.44 3109.46 943.264 2397.86 37.7369 539.176 711.6 905.527 341.759 267.999 57.6066 210.392 100.776 59.9085 255.926 600.051 810.082 482.154 84.0553 65.6248 398.098 249.469 109.617
internal_count=31336 23944 7392 16856 4803 13102 187 2589 3754 4616 1657 1300 280 1020 489 291 1341 3152 4110 2430 422 328 2008 1258 531
is_linear=0
shrinkage=0.1


Tree=10
num_leaves=26
num_cat=0
split_feature=8 1 1 0 10 10 10 1 10 28 28 1 0 5 0 0 22 0 0 21 10 9 5 10 10
split_gain=76.593 62.6445 16.0676 13.6238 11.4493 10.9225 17.594 10.5564 8.56138 7.81889 7.42137 7.24515 6.66437 6.00911 5.875 5.78428 6.57613 5.44851 5.3018 5.24547 5.94468 5.89406 5.23447 5.67788 5.17396
threshold=1.0000000180025095e-35 0.47916666666666669 0.89583333333333337 0.6558831176623533 0.082500000000000018 0.077500000000000013 0.0075000000000000006 1.0000000180025095e-35 0.16250000000000003 1.0000000180025095e-35 0.46875000000000006 0.47916666666666669 0.38639772795455918 0.30000000000000004 0.090531810636212739 0.61962239244784911 1.0000000180025095e-35 0.88654773095461914 0.66740334806696144 0.009250000000000003 0.047500000000000007 0.3000000000000001 0.10000000000000002 1.0000000180025095e-35 0.032500000000000008
decision_type=2 2 2 2 2 2 2 2 2 2 2 2 2 2 2 2 2 2 2 2 2 2 2 2 2
left_child=7 4 5 -4 10 6 22 -1 11 14 13 -9 -10 19 -8 -16 17 -17 -5 20 21 -2 23 -3 -20
right_child=1 2 3 18 -6 -7 9 8 12 -11 -12 -13 -14 -15 15 16 -18 -19 24 -21 -22 -23 -24 -25 -26
leaf_value=0.078434022642465032 -0.015963078824908553 -0.035154682416623957 0.0091720284073489224 0.10668631374312819 -0.028290417192045711 -0.017193516032979413 -0.01360784506052088 0.014073627611207652 0.0087635636655038381 -0.038180830058389036 -0.024615695644585361 0.032300255921753229 0.087322517552230305 0.04506565865464264 0.028997483752060085 -0.013684374564625401 0.032019580453280905 0.024880718008989347 0.045483445310210618 -0.070073340776292389 0.00013531079703112378 0.0010782143561804704 0.012591001177757381 -0.0073866512442578832 0.01731213712563846
leaf_weight=35.598583221435547 1111.0959692597389 101.473707228899 505.87781646847725 10.417760685086249 531.07980382442474 264.46661727130413 55.082025140523911 588.82042121887207 15.646722584962843 26.077797889709473 384.82124218344688 346.57643908262253 34.980277061462402 20.061113059520721 343.92490941286087 120.68565440177917 84.709130331873894 52.59849888086319 159.38300296664238 14.403761669993399 475.8258750140667 248.23873645067215 84.425575584173203 268.74294091761112 110.46764858067036
leaf_count=180 5974 529 2519 50 3000 1398 282 2988 79 139 2138 1690 176 107 1751 613 430 265 768 79 2580 1284 435 1385 548
internal_value=0 -0.00513319 0.00752831 0.0189722 -0.0150804 0.00111181 0.00536747 0.0249286 0.0229962 0.0155131 -0.0119682 0.0208275 0.0630551 -0.00936472 0.0176453 0.0205063 0.00918447 -0.00197487 0.036659 -0.00995542 -0.00948324 -0.0128506 -0.00987454 -0.0149993 0.0339533
internal_weight=0 4973.86 2188.33 786.146 2785.53 1402.19 1137.72 1021.62 986.024 683.078 2254.45 935.397 50.627 1869.63 657 601.918 257.993 173.284 280.268 1849.56 1835.16 1359.33 454.642 370.217 269.851
internal_count=31387 26274 11112 3885 15162 7227 5829 5113 4933 3480 12162 4678 255 10024 3341 3059 1308 878 1366 9917 9838 7258 2349 1914 1316
is_linear=0
shrinkage=0.1


Tree=11
num_leaves=26
num_cat=0
split_feature=35 8 35 35 8 34 21 35 28 40 5 5 27 5 28 35 35 23 27 40 35 28 35 5 35
split_gain=102.075 125.085 36.13 15.4438 16.7288 10.8239 12.9376 7.94379 9.94675 7.40184 7.28003 13.3329 7.16338 10.7672 6.40366 6.29091 7.79924 5.52857 7.08232 7.52437 6.35909 5.82571 5.52527 5.37435 9.59666
threshold=0.39893617021276601 1.0000000180025095e-35 0.48404255319148942 0.26063829787234044 1.0000000180025095e-35 0.58333333333333337 0.0044166666666666686 0.1223404255319149 0.40625000000000006 1.0000000180025095e-35 1.0000000180025095e-35 0.16666666666666671 0.50000000000000011 0.16666666666666671 1.0000000180025095e-35 0.80319148936170226 0.57978723404255328 1.0000000180025095e-35 1.0000000180025095e-35 1.0000000180025095e-35 0.27127659574468094 0.65625000000000011 0.23936170212765961 0.10000000000000002 0.1542553191489362
decision_type=2 2 2 2 2 2 2 2 2 2 2 2 2 2 2 2 2 2 2 2 2 2 2 2 2
left_child=3 12 9 7 -5 6 10 -1 23 14 -6 17 13 -2 -3 16 -4 18 -12 -20 -21 -22 -10 -9 -25
right_child=1 2 15 4 5 -7 -8 8 22 -11 11 -13 -14 -15 -16 -17 -18 -19 19 20 21 -23 -24 24 -26
leaf_value=0.049194179317489366 0.020015872964487858 0.0057046200859617192 -0.034917187348413821 0.028136428620025983 0.0068085953747893434 0.050385968988162159 -0.059970586193639902 0.017036406686505537 -0.012942948437461514 -0.021149389241576284 -0.071086211069743568 0.015111926815887364 0.042519942024100074 -0.041609125048561506 -0.032672926360907094 0.017688613539733094 -0.052690379571564284 -0.025152649875041538 0.029725454122158903 0.056052392613366114 -0.02691006648439799 0.049793696936696635 0.025596347174401908 0.13031186502258379 0.029985609299230061
leaf_weight=77.442024543881416 485.21865350008011 249.61972047388554 542.54788123071194 263.96585613489151 932.02093994617462 43.347996070981026 35.477922350168228 1155.7512352764606 159.66343213617802 457.10665926337242 14.396237179636953 196.42011900246143 132.10791774094105 30.105878442525864 52.647545725107193 17.357514023780823 453.64585669338703 273.11182683706284 63.672492235898972 12.277288660407065 104.48631559312344 10.933493748307226 48.494925945997238 10.107598870992659 169.44967059791088
leaf_count=358 2438 1345 3161 1278 4824 218 192 5675 810 2499 77 985 649 152 292 95 2797 1427 327 61 548 59 247 47 826
internal_value=0 -0.0158766 -0.0296145 0.0107237 0.00472768 0.00106268 -0.00023843 0.0179371 0.0163684 -0.0131209 0.00107965 -0.00682634 0.0217422 0.0164145 -0.000977806 -0.0419712 -0.0430113 -0.015826 -0.00344378 0.00164162 -0.0123568 -0.0196388 -0.00396149 0.019538 0.0356365
internal_weight=0 2420.36 1772.93 3571.02 1950.11 1686.14 1642.8 1620.91 1543.47 759.374 1607.32 675.298 647.432 515.325 302.267 1013.55 996.194 478.878 205.766 191.37 127.697 115.42 208.158 1335.31 179.557
internal_count=31387 13428 10189 17959 9996 8718 8500 7963 7605 4136 8308 3484 3239 2590 1637 6053 5958 2499 1072 995 668 607 1057 6548 873
is_linear=0
shrinkage=0.1


Tree=12
num_leaves=26
num_cat=0
split_feature=35 8 1 35 24 12 35 35 1 35 35 5 8 24 35 12 5 1 35 24 5 9 12 12 12
split_gain=84.5533 105.278 23.5555 22.707 12.7052 10.2468 11.1568 10.7753 8.94425 8.93758 8.14409 8.09912 9.83733 19.511 11.8992 17.9582 15.0728 11.0534 10.8638 7.70829 7.33974 7.25473 7.11262 6.73876 6.63457
threshold=0.42021276595744689 1.0000000180025095e-35 0.68750000000000011 0.48404255319148942 1.0000000180025095e-35 0.0016176602688864272 0.1542553191489362 0.37765957446808512 0.68750000000000011 0.1223404255319149 0.34574468085106386 0.16666666666666671 1.0000000180025095e-35 1.0000000180025095e-35 0.26063829787234044 0.00064978141749258932 1.0000000180025095e-35 0.47916666666666669 0.14361702127659579 1.0000000180025095e-35 0.10000000000000002 0.3000000000000001 0.00056145761595352887 0.0023437733928197146 0.00046375422942180434
decision_type=2 2 2 2 2 2 2 2 2 2 2 2 2 2 2 2 2 2 2 2 2 2 2 2 2
left_child=2 4 9 -3 20 6 -4 10 21 22 -7 12 13 -11 15 24 -16 19 -17 -18 -2 -5 -1 -20 -14
right_child=1 3 5 8 -6 7 -8 -9 -10 11 -12 -13 14 -15 16 18 17 -19 23 -21 -22 -23 -24 -25 -26
leaf_value=0.01326450080747095 0.028839083358989867 -0.0134775899663279 0.049241105806047653 -0.045980500205903524 -0.021594066891309147 0.050975949801460585 0.014170673652803093 -0.0081266000639103973 -0.016072434929968165 0.044700401861848232 0.12888502542517996 0.020506209411244744 0.0071631904326880328 -0.0066423522363211474 0.00034262029129323185 0.072973982746782476 -0.020501728884125069 0.0040905039117893989 0.01374230086917708 -0.053315706321832856 -0.0085131847615279449 -0.014658010416264295 0.086918027725969502 0.068895287449087725 -0.016423409245442968
leaf_weight=31.420072823762894 472.24282263219357 539.78188134729862 100.69132050871849 760.89376300573349 66.782605737447739 76.048681512475014 916.88759027421474 25.989891707897186 145.41061949729919 143.75663352012634 16.310728043317795 238.47499892115593 210.86614592373371 152.5298228263855 779.33103799819946 37.570552140474319 185.92673617601395 108.22471058368683 395.45797441899776 116.50824970006943 59.175367310643196 81.969662696123123 22.529218956828117 23.475669518113136 274.43215563893318
leaf_count=146 2330 2990 455 4753 348 360 4431 130 813 694 80 1199 1056 752 4120 176 1005 564 1969 636 297 483 103 116 1379
internal_value=0 -0.0160513 0.00878653 -0.0299738 0.0195118 0.0208815 0.0176416 0.0487342 -0.0389832 0.00373611 0.0647413 0.0029206 0.00119317 0.0182668 -0.00117953 0.00721819 -0.0078263 -0.0233304 0.021456 -0.0331448 0.0246786 -0.0429351 0.0440334 0.0168343 -0.00617359
internal_weight=0 2126.26 3856.43 1528.06 598.201 1135.93 1017.58 118.349 988.274 2720.5 92.3594 2666.55 2428.08 296.286 2131.79 941.802 1189.99 410.66 456.504 302.435 531.418 842.863 53.9493 418.934 485.298
internal_count=31385 12014 19371 9039 2975 5456 4886 570 6049 13915 440 13666 12467 1446 11021 4696 6325 2205 2261 1641 2627 5236 249 2085 2435
is_linear=0
shrinkage=0.1


Tree=13
num_leaves=26
num_cat=0
split_feature=10 10 29 12 0 9 41 26 5 0 0 12 12 11 5 0 21 0 12 12 12 0 24 10 0
split_gain=9.63179 16.5261 14.5067 11.1291 9.77 9.06993 8.72104 12.3946 8.35254 8.05325 11.3666 7.59458 7.33263 6.02833 7.96015 5.82409 5.77667 5.55401 5.49615 5.71982 9.09017 6.11082 5.46928 5.5221 6.70321
threshold=0.077500000000000013 0.0075000000000000006 1.0000000180025095e-35 0.00059588436087073691 0.027870557411148227 0.3000000000000001 1.0000000180025095e-35 0.41666666666666669 0.23333333333333336 0.65998319966399344 0.78861577231544644 0.0021378566937150048 0.0036582627182082223 1.0000000180025095e-35 1.0000000180025095e-35 0.15493309866197327 2.7500000000000004e-06 0.38250765015300314 0.00048060454531844175 0.00059139293948558258 0.00062006317932748463 0.9213384267685355 1.0000000180025095e-35 0.052500000000000012 0.04335086701734036
decision_type=2 2 2 2 2 2 2 2 2 2 2 2 2 2 2 2 2 2 2 2 2 2 2 2 2
left_child=1 5 3 6 -2 11 7 -3 13 17 -11 18 -6 -9 22 16 -5 -4 -1 -20 -21 -22 23 24 -15
right_child=4 2 9 15 12 -7 -8 8 -10 10 -12 -13 -14 14 -16 -17 -18 -19 19 20 21 -23 -24 -25 -26
leaf_value=-0.015129673534544544 -0.062387895064074377 0.023028309607060257 -0.024895406263773838 0.0032698369020096327 -0.005436441370849531 0.0088017675582748086 0.014619219465469244 0.0080867909935506185 0.053648828888549265 0.079002386171270075 -0.038349420104743515 -0.032900518317325794 -0.060441720969698493 0.077089309638326067 -0.0339125850551599 0.016386191240803382 -0.063284124771532363 -0.079987250570558804 0.012582954422084994 -0.061859072194569924 -0.0068417934572511767 0.02739312378795147 -0.032157048813765778 -0.028746317213078437 4.2219540477117078e-05
leaf_weight=495.15485635399818 32.310135662555695 140.85851134359837 45.989481940865517 225.61063987016678 1121.2358539700508 368.33004292845726 341.02618533372879 133.99509745836258 20.497572258114815 14.41709181666374 19.301232159137726 119.31375563144684 24.773641169071198 11.781853333115576 166.92115269601345 1307.8575475513935 13.841517269611357 30.443829938769341 206.72170943021774 28.285802841186523 631.36295159161091 56.827101647853851 77.760060861706734 66.627547845244408 271.96268099546432
leaf_count=2638 177 721 242 1175 6102 1873 1743 692 101 76 100 665 147 63 857 6747 73 160 1078 147 3339 300 391 356 1422
internal_value=0 0.00193548 0.00670417 0.00811522 -0.00815557 -0.00529204 0.0010207 -0.00418687 -0.0093021 -0.0288862 0.0118093 -0.00866844 -0.00662604 -0.0110728 -0.0153882 0.013761 -0.000574785 -0.0468467 -0.00662958 -0.00206992 -0.00629849 -0.00401398 -0.00816451 -0.00283798 0.00324356
internal_weight=0 4794.89 2888.89 2778.74 1178.32 1906 1231.43 890.404 749.546 110.152 33.7183 1537.67 1146.01 729.048 595.053 1547.31 239.452 76.4333 1418.35 923.198 716.476 688.19 428.132 350.372 283.745
internal_count=31385 24959 14919 14341 6426 10040 6346 4603 3882 578 176 8167 6249 3781 3089 7995 1248 402 7502 4864 3786 3639 2232 1841 1485
is_linear=0
shrinkage=0.1


Tree=14
num_leaves=26
num_cat=0
split_feature=35 8 35 1 24 24 35 1 35 1 20 13 35 24 8 21 0 0 0 35 35 35 0 20 35
split_gain=66.3035 89.8393 21.4984 18.865 13.1491 9.72589 8.86093 14.2343 9.36729 8.34663 8.03229 7.66479 7.32929 5.78632 9.48299 6.68294 5.77004 7.63367 6.87704 6.60867 7.5299 5.97388 6.12427 5.69486 5.67007
threshold=0.39893617021276601 1.0000000180025095e-35 0.48404255319148942 0.89583333333333337 1.0000000180025095e-35 1.0000000180025095e-35 0.54787234042553201 0.89583333333333337 0.77127659574468099 0.68750000000000011 1.0000000180025095e-35 0.00037304984975095713 0.14361702127659579 1.0000000180025095e-35 1.0000000180025095e-35 0.0047500000000000016 0.60330206604132097 0.13471269425388513 0.63590271805436116 0.60106382978723416 0.53723404255319163 0.57978723404255328 0.11038220764415289 1.0000000180025095e-35 0.3563829787234043
decision_type=2 2 2 2 2 2 2 2 2 2 2 2 2 2 2 2 2 2 2 2 2 2 2 2 2
left_child=3 4 -3 12 6 -5 11 8 10 16 -8 -2 23 14 -14 24 17 21 19 20 -18 22 -4 -1 -15
right_child=1 2 9 5 -6 -7 7 -9 -10 -11 -12 -13 13 15 -16 -17 18 -19 -20 -21 -22 -23 -24 -25 -26
leaf_value=0.01296439109032238 0.034306403270226618 -0.012247244418081808 -0.015053627759897154 0.015393060842445109 -0.019581149043042267 0.041267595425868657 -0.01092578032780212 0.10334334195392479 0.062200062937453088 -0.012778580366515652 0.024022879135389114 0.12150098713723262 0.031699626019746768 0.0025748998646134853 0.0051243119389048179 -0.044898643786394729 -0.0057981564205788526 -0.052426749175281721 -0.032811024560009526 -0.040462501271568224 0.13077533350937035 -0.04556488306123678 0.071039824959016493 0.0505870328737415 -0.018994311708879733
leaf_weight=137.72719815373421 240.95401853322983 752.16197052598 45.42793008685112 439.32178190350533 79.203279510140419 217.14032311737537 171.91196818649769 16.527998462319374 28.961842194199562 146.13392715156078 106.4977795034647 10.52820800244808 146.53930884599686 822.92985877394676 1605.8787163943052 35.332504391670227 8.3127398639917427 377.34004901349545 302.57185365259647 10.853364840149878 7.8336828500032416 56.581792801618576 10.099317669868467 56.877249836921692 143.06216534972191
leaf_count=639 1152 4147 285 2081 412 1016 888 78 133 824 508 50 695 4148 8214 187 51 2411 1925 71 50 372 61 262 747
internal_value=0 -0.012907 -0.0249227 0.00862128 0.0186154 0.0239526 0.0238744 0.0129367 0.00807342 -0.0348003 0.00244067 0.0379592 0.00520749 0.0038818 0.00734692 -0.0021819 -0.0387288 -0.0456184 -0.0284952 0.0198479 0.0604251 -0.022697 0.000594191 0.0239635 -0.000618846
internal_weight=0 2371.9 1717.32 3604.81 654.585 656.462 575.382 323.9 307.372 965.155 278.41 251.482 2948.35 2753.74 1752.42 1001.32 819.021 489.449 329.572 26.9998 16.1464 112.109 55.5272 194.604 965.992
internal_count=31407 13418 10197 17989 3221 3097 2809 1607 1529 6050 1396 1202 14892 13991 8909 5082 5226 3129 2097 172 101 718 346 901 4895
is_linear=0
shrinkage=0.1


Tree=15
num_leaves=26
num_cat=0
split_feature=35 8 35 1 24 24 35 35 1 35 19 19 4 4 24 0 1 1 35 35 1 35 8 35 0
split_gain=54.0549 73.6758 19.0859 15.0504 10.5533 7.63614 7.19946 6.95584 10.9705 7.39857 6.84444 6.7735 9.07321 6.6756 7.45136 11.1209 8.94559 6.63775 6.15009 6.73204 5.64453 5.42836 5.42449 5.20449 5.1903
threshold=0.39893617021276601 1.0000000180025095e-35 0.57978723404255328 0.89583333333333337 1.0000000180025095e-35 1.0000000180025095e-35 0.80319148936170226 0.54787234042553201 0.89583333333333337 0.78191489361702138 1.0000000180025095e-35 1.0000000180025095e-35 0.7857142857142857 0.2142857142857143 1.0000000180025095e-35 0.16616332326646535 0.47916666666666669 1.0000000180025095e-35 0.25000000000000006 0.28191489361702132 0.89583333333333337 0.27127659574468094 1.0000000180025095e-35 0.34574468085106386 0.36201724034480698
decision_type=2 2 2 2 2 2 2 2 2 2 2 2 2 2 2 2 2 2 2 2 2 2 2 2 2
left_child=3 4 11 13 7 21 17 -2 9 10 -9 -3 -13 -1 22 23 18 -4 -17 -20 -19 -5 -15 -16 -6
right_child=1 2 6 5 24 -7 -8 8 -10 -11 -12 12 -14 14 15 16 -18 20 19 -21 -22 -23 -24 -25 -26
leaf_value=0.010499085004781361 0.033631726782344558 -0.022238784185270182 0.04453217290923997 0.025265522044230146 -0.050555831459735301 0.036558078867325275 0.022970906381872158 -0.0099148872845581972 0.089398438479502407 0.057581388238724912 0.022106973564129107 -0.0098232959269027795 0.063018399383562282 0.024831028281941378 -0.02583718340387289 0.0069273581291883421 0.015914176968934057 -0.048298390836037389 -0.055679700978370467 -0.012596439407986 0.00014167318623548792 0.0030810948447885797 0.0030578898439677887 -0.079225499233622876 0.0023838232683919868
leaf_weight=1180.9125372767448 255.20524656772614 785.7585901170969 8.394516393542288 212.85294795036316 29.924156665802002 220.41576129198074 16.967115491628647 172.61758708953857 17.158558309078217 26.66541799902916 108.82576295733452 454.15415376424789 17.767507761716843 128.56781053543091 77.052621245384216 112.3483844846487 177.47451454401016 383.61231973767281 46.392950475215912 166.49320562183857 25.638559997081757 229.07467520236969 1041.2662942111492 23.958280518651009 48.539932191371918
leaf_count=5761 1202 4574 57 980 159 1016 96 896 78 119 514 2634 96 604 399 572 888 2591 242 900 149 1101 5397 129 253
internal_value=0 -0.0117487 -0.0227947 0.00772831 0.0166189 0.0213527 -0.0408613 0.0212722 0.011573 0.00723691 0.00246486 -0.016551 -0.00707958 0.00467373 0.00079461 -0.00822776 -0.00214264 -0.043456 -0.0119978 -0.0219881 -0.0452623 0.0137675 0.00545133 -0.0385061 -0.0177983
internal_weight=0 2351.23 1692.29 3616.81 658.937 662.343 434.613 580.473 325.267 308.109 281.443 1257.68 471.922 2954.47 1773.55 603.72 502.709 417.645 325.235 212.886 409.251 441.928 1169.83 101.011 78.4641
internal_count=31407 13418 10197 17989 3221 3097 2893 2809 1607 1529 1410 7304 2730 14892 9131 3130 2602 2797 1714 1142 2740 2081 6001 528 412
is_linear=0
shrinkage=0.1


Tree=16
num_leaves=26
num_cat=0
split_feature=8 4 4 5 24 4 29 34 34 15 5 29 26 5 29 11 5 26 26 26 26 4 34 34 14
split_gain=27.4048 27.4805 15.4149 11.0942 10.0521 7.50341 7.15852 5.76195 8.86554 5.19673 4.73867 4.56485 4.51253 5.42408 3.80707 3.73063 3.52546 5.82496 3.46207 3.88687 3.2959 3.02616 2.91288 2.80764 2.75136
threshold=1.0000000180025095e-35 0.2142857142857143 0.6428571428571429 0.10000000000000002 1.0000000180025095e-35 0.50000000000000011 1.0000000180025095e-35 1.0000000180025095e-35 0.58333333333333337 1.0000000180025095e-35 1.0000000180025095e-35 1.0000000180025095e-35 0.58333333333333337 1.0000000180025095e-35 1.0000000180025095e-35 1.0000000180025095e-35 0.10000000000000002 0.41666666666666669 0.19444444444444445 1.0000000180025095e-35 0.083333333333333343 0.6428571428571429 1.0000000180025095e-35 0.58333333333333337 1.0000000180025095e-35
decision_type=2 2 2 2 2 2 2 2 2 2 2 2 2 2 2 2 2 2 2 2 2 2 2 2 2
left_child=4 23 3 5 12 6 7 9 20 18 -10 24 13 -1 22 -8 -4 -18 19 -3 -9 -15 -6 -2 -5
right_child=1 2 16 11 14 -7 15 8 10 -11 -12 -13 -14 21 -16 -17 17 -19 -20 -21 -22 -23 -24 -25 -26
leaf_value=0.027905066704740807 0.0062098142019844683 -0.0080268983568016899 0.0048581773493709089 -0.00053044927819977117 0.0057805404733606378 -0.031068148481722693 -0.0079552566491212003 -0.071307385788037747 0.029604259618283404 -0.026320702599090601 -0.049969089736240688 -0.037025014171522597 -0.0052573073686237089 0.0038457217932603809 -0.04530771149130506 -0.055849555685714106 0.090194424683894658 0.017190984052758037 -0.0091731183822043594 0.020099575239272392 -0.029921476347800749 0.055129546019774406 -0.024417385012387782 0.033644112771082278 0.018808757577669852
leaf_weight=527.30292634665966 1710.0448296070099 105.139493688941 282.00001329183578 510.62709429860115 239.15569703280926 250.68820137530565 22.879931166768074 21.492147624492645 37.78047177195549 157.55369552969933 9.3282916247844678 31.130344569683075 62.108776018023491 161.05629366636276 18.337238341569901 56.506510317325592 12.780654132366179 75.766813814640045 1207.2926307171583 92.207145765423775 186.09600645303726 12.395442500710486 36.863421961665154 38.147140741348267 85.937167666852474
leaf_count=2499 8542 593 1499 2751 1187 1636 131 121 206 894 50 170 302 774 93 327 62 378 6730 500 1025 58 181 189 470
internal_value=0 -0.00324264 -0.0088297 -0.0113882 0.0145118 -0.0148072 -0.0126572 -0.0113724 -0.0253206 -0.00909797 0.0138346 0.0003054 0.0205689 0.0228587 -0.00118386 -0.0420536 0.0103265 0.0277349 -0.00716572 0.00511169 -0.0342092 0.00751413 0.0017453 0.0068088 0.00225442
internal_weight=0 4893.4 3145.21 2774.66 1057.22 2146.96 1896.28 1816.89 254.697 1562.19 47.1088 627.695 762.863 700.755 294.356 79.3864 370.547 88.5475 1404.64 197.347 207.588 173.452 276.019 1748.19 596.564
internal_count=31368 26274 17543 15604 5094 12213 10577 10119 1402 8717 256 3391 3633 3331 1461 458 1939 440 7823 1093 1146 832 1368 8731 3221
is_linear=0
shrinkage=0.1


Tree=17
num_leaves=26
num_cat=0
split_feature=1 8 29 1 40 12 9 12 12 8 12 12 0 40 12 12 12 36 0 12 29 12 12 40 0
split_gain=29.2545 21.1156 10.3351 9.19926 8.16958 8.0196 7.42072 7.33484 9.58233 7.06872 9.01531 6.7958 6.48609 6.19294 8.03978 5.43384 6.25512 5.43223 5.41864 5.06842 4.99408 6.4862 6.75126 4.78615 4.60897
threshold=0.47916666666666669 1.0000000180025095e-35 1.0000000180025095e-35 1.0000000180025095e-35 1.0000000180025095e-35 0.00043418570530287152 1.0000000180025095e-35 0.00048220648561248018 0.0004732460999490972 1.0000000180025095e-35 0.00029994460580291647 0.0018570081145013026 0.62745254905098113 1.0000000180025095e-35 0.00074303081115070226 0.00041941641464802234 0.00043569033146689822 1.0000000180025095e-35 0.78096561931238628 0.00044839356828457646 0.50000000000000011 0.00050809952989789512 0.00043569033146689822 1.0000000180025095e-35 0.122492449848997
decision_type=2 2 2 2 2 2 2 2 2 2 2 2 2 2 2 2 2 2 2 2 2 2 2 2 2
left_child=1 3 9 23 5 -3 -7 8 -6 10 -2 -12 -4 15 -15 -11 -17 20 -14 -8 21 22 -5 -1 -18
right_child=2 4 12 17 7 6 19 -9 -10 13 11 -13 18 14 -16 16 24 -19 -20 -21 -22 -23 -24 -25 -26
leaf_value=0.0073185176346029605 0.10720258988998484 0.018265442148577116 -0.047901993319142834 0.0011985720388679119 -0.019297217877945059 0.063111078891732869 -0.069879176738019966 -0.0098440279219519384 -0.05981829643349508 -0.024364297317218789 0.015835282714203269 0.078677092337797697 0.056201477350694952 -0.0028825773233519809 0.012934328642592289 0.048770189214594882 -0.010303800868785898 0.018446079738522088 -0.030717727744271062 -0.0071886068182787227 -0.059181884045287819 0.014282617431079257 -0.039499796550085058 0.082927585533364559 0.016273142709569085
leaf_weight=12.620066836476324 12.062898471951483 144.65360087156296 52.812025159597397 129.40809969604015 482.762775413692 14.883225142955778 13.076021611690519 1012.671436958015 66.407129444181919 34.922145485877991 320.42144529521465 18.191728979349136 13.83449272811413 873.7918843626976 508.28314815461636 53.976216346025467 73.179245054721832 243.96590504050255 14.88609132170677 952.07517196238041 13.986166268587111 198.17962296307087 59.482564643025398 24.980780407786369 600.4202526807785
leaf_count=61 55 819 276 643 2796 84 76 5699 397 179 1486 85 71 4438 2579 273 372 1156 77 5275 71 977 300 118 3005
internal_value=0 -0.00622125 0.00793365 0.00948361 -0.0102119 -0.00371283 -0.00695745 -0.0148916 -0.0241982 0.00907862 0.0222417 0.0192132 -0.0271002 0.00692595 0.00293394 0.0141609 0.0160109 0.00667972 0.0111295 -0.00803858 -0.000476351 0.00164332 -0.0116143 0.0575668 0.0133849
internal_weight=0 3369.15 2576.78 682.623 2686.53 1124.69 980.034 1561.84 549.17 2495.25 350.676 338.613 81.5326 2144.57 1382.08 762.498 727.576 645.022 28.7206 965.151 401.056 387.07 188.891 37.6008 673.599
internal_count=31368 18472 12896 3326 15146 6254 5435 8892 3193 12472 1626 1571 424 10846 7017 3829 3650 3147 148 5351 1991 1920 943 179 3377
is_linear=0
shrinkage=0.1


Tree=18
num_leaves=26
num_cat=0
split_feature=27 8 27 27 8 10 0 10 13 10 10 10 36 29 10 10 36 0 0 0 29 29 0 0 0
split_gain=21.4519 15.0044 17.8953 8.43141 7.4672 10.8153 8.00217 9.45353 7.18528 6.05206 5.55892 5.54618 6.91992 7.01208 5.07586 6.31222 7.71923 6.13073 5.87722 5.69035 4.39262 4.17329 4.12951 4.10574 4.0742
threshold=0.70000000000000018 1.0000000180025095e-35 0.3000000000000001 1.0000000180025095e-35 1.0000000180025095e-35 0.10250000000000002 0.80810616212324249 0.032500000000000008 0.0030847363438027417 0.20250000000000004 0.077500000000000013 0.0075000000000000006 1.0000000180025095e-35 1.0000000180025095e-35 0.16250000000000003 0.067500000000000018 1.0000000180025095e-35 0.13089261785235709 0.87455749114982317 0.93325866517330358 0.50000000000000011 1.0000000180025095e-35 0.9060081201624034 0.01584031680633613 0.94126882537650769
decision_type=2 2 2 2 2 2 2 2 2 2 2 2 2 2 2 2 2 2 2 2 2 2 2 2 2
left_child=1 8 3 24 5 6 21 -8 14 11 20 23 13 -13 15 18 17 -17 -1 -20 22 -2 -6 -4 -3
right_child=4 2 9 -5 10 -7 7 -9 -10 -11 -12 12 -14 -15 -16 16 -18 -19 19 -21 -22 -23 -24 -25 -26
leaf_value=0.013886897299081883 0.013495728532206453 -0.0076548952614122453 -0.059135307005702832 -0.025409284965264369 0.0088701206832460279 0.080886689287166066 0.10080382388962446 -0.0056633857574441933 0.091838430787410497 -0.066619989451384712 -0.0056606313380712127 -0.001754877465376692 0.010951929045405963 -0.053030413381838004 0.040949006482303575 -0.089487970402087849 0.015220228098901088 -0.018542459553111408 -0.049123722383250246 0.0068787958707272091 -0.034664376472813389 -0.040795907663896763 0.029223942140932321 -0.0075371513753760017 0.041373243823830827
leaf_weight=536.31090189516544 144.37755134701729 263.04029470682144 15.710932523012159 613.43395929038525 1050.4448925480247 31.452651470899582 22.11283566057682 13.373325541615484 10.152185901999472 14.5758109241724 281.701565079391 1089.2952104955912 520.31594106554985 27.341042816638947 42.287696197628975 13.953354597091673 68.46371890604496 96.273865014314651 30.658270448446274 44.411022111773491 21.638776928186417 15.69362962245941 110.16863988339901 848.27380043268204 18.114085674285889
leaf_count=2576 672 1429 83 3962 5436 146 102 62 49 87 1552 5655 2681 158 200 70 318 474 147 212 121 76 564 4448 97
internal_value=0 -0.00373643 -0.006689 -0.0188366 0.00957921 0.0264555 0.0176979 0.0606635 0.0082135 -0.00236871 0.00696185 -0.001994 0.0014269 -0.00301091 0.00719281 0.00538528 -0.0111465 -0.0275287 0.0102181 -0.0159846 0.00996999 0.00816911 0.0108027 -0.00847613 -0.00449398
internal_weight=0 4252.61 3410.1 894.588 1690.96 227.01 195.557 35.4862 842.511 2515.51 1463.95 2500.94 1636.95 1116.64 832.359 790.071 178.691 110.227 611.38 75.0693 1182.25 160.071 1160.61 863.985 281.154
internal_count=31377 22646 18600 5488 8731 1058 912 164 4046 13112 7673 13025 8494 5813 3997 3797 862 544 2935 359 6121 748 6000 4531 1526
is_linear=0
shrinkage=0.1


Tree=19
num_leaves=26
num_cat=0
split_feature=1 27 27 36 12 10 12 5 1 10 10 12 1 12 36 10 12 5 4 10 12 38 12 10 12
split_gain=23.9055 19.348 7.90499 8.43045 8.54105 7.31953 7.13692 6.75042 7.4085 6.35046 6.01812 6.90046 5.74932 5.3146 4.95937 9.55541 6.44671 4.8951 4.87929 7.07778 4.86174 13.1246 5.27898 4.85466 5.47988
threshold=0.68750000000000011 0.70000000000000018 0.3000000000000001 1.0000000180025095e-35 0.00030717579423301494 0.037500000000000012 0.0020428481600143727 0.16666666666666671 0.27083333333333337 0.0075000000000000006 0.082500000000000018 0.0004075665478935234 0.47916666666666669 0.00041941641464802234 1.0000000180025095e-35 0.0075000000000000006 0.0029071473485642427 0.10000000000000002 0.2142857142857143 0.067500000000000018 0.0015783977602778694 1.0000000180025095e-35 0.00083139204120130552 0.0075000000000000006 0.00053173189208611561
decision_type=2 2 2 2 2 2 2 2 2 2 2 2 2 2 2 2 2 2 2 2 2 2 2 2 2
left_child=1 2 3 4 -1 9 -5 12 -9 17 11 -6 -3 -7 -4 16 -16 -2 19 -15 22 -22 -11 -10 -25
right_child=5 7 14 6 10 13 -8 8 23 20 -12 -13 -14 18 15 -17 -18 -19 -20 -21 21 -23 -24 24 -26
leaf_value=0.028455652625905683 0.0035709334179577414 0.0007021012805140032 -0.0074925278145981759 -0.0036141232732008312 -0.067099557333716905 -0.028062181579036366 -0.042717016521812957 0.080483533357201764 -0.027893845256136571 0.028375738913748106 -0.047777587657213551 -0.016421117682617392 0.01745628384128808 -0.0066439126833213241 -0.0097980766119772078 0.011263196765681441 -0.096298609549989089 0.029033257105232836 -0.0019623401431185096 0.032338207124869615 -0.018229947332020321 0.087098269257373143 0.0022177369144916639 -0.013348341276237741 0.053958434043993857
leaf_weight=28.172023355960846 389.91178297996521 772.89711614698172 1484.9066844955087 552.7754208445549 29.665900237858295 52.799358829855919 50.987199112772942 24.324366047978401 18.257336959242821 280.07038877904415 116.62039364129305 285.97732183337212 278.70704600214958 74.621270716190338 248.26751406490803 460.09951168298721 8.9278739839792234 93.659287065267563 348.78675682842731 123.83035096526146 17.440903931856155 36.719244360923767 106.55530267953873 18.070952951908112 36.509352937340736
leaf_count=166 1894 4158 7861 3140 186 262 322 127 94 1325 750 1736 1429 343 1315 2379 52 450 1774 580 85 174 503 90 182
internal_value=0 -0.00368847 -0.00761434 -0.0146913 -0.0248839 0.0108361 -0.00691733 0.00747381 0.0326939 0.0164191 -0.0283616 -0.0211861 0.00514304 0.00223445 -0.00419417 0.00263308 -0.0128031 0.00850379 0.00515868 0.0176772 0.0251014 0.0531688 0.0211681 0.0167261 0.0316628
internal_weight=0 4415.17 3266.4 1064.2 460.436 1524.39 603.763 1148.77 97.162 924.357 432.264 315.643 1051.6 600.038 2202.2 717.295 257.195 483.571 547.238 198.452 440.786 54.1601 386.626 72.8376 54.5803
internal_count=31377 23987 17907 6300 2838 7390 3462 6080 493 4431 2672 1922 5587 2959 11607 3746 1367 2344 2697 923 2087 259 1828 366 272
is_linear=0
shrinkage=0.1


Tree=20
num_leaves=26
num_cat=0
split_feature=1 8 27 1 15 22 13 0 0 0 0 0 38 12 13 22 23 0 0 1 27 0 0 12 12
split_gain=16.8339 14.9854 20.24 6.36453 5.81383 6.38742 13.844 11.9494 7.65755 7.32107 8.23966 6.2505 5.59986 6.75108 5.59331 5.15142 5.10485 8.76062 8.04208 5.10464 6.83204 6.65207 6.84882 5.77402 6.09933
threshold=0.47916666666666669 1.0000000180025095e-35 0.3000000000000001 1.0000000180025095e-35 1.0000000180025095e-35 1.0000000180025095e-35 0.0023962664141933894 0.89818796375927523 0.62360247204944108 0.30788615772315453 0.25327506550131013 0.41409828196563941 1.0000000180025095e-35 0.00028370811749558344 0.0012246326102169352 1.0000000180025095e-35 1.0000000180025095e-35 0.53259065181303644 0.5005200104002081 0.89583333333333337 0.70000000000000018 0.63590271805436116 0.58704174083481686 0.0004641285145372339 0.00049170584184208166
decision_type=2 2 2 2 2 2 2 2 2 2 2 2 2 2 2 2 2 2 2 2 2 2 2 2 2
left_child=1 3 12 -1 5 14 7 8 9 10 -7 -11 13 -3 -4 -15 18 -18 -13 20 -2 22 -21 -23 -25
right_child=19 2 4 -5 -6 6 -8 -9 -10 11 -12 16 -14 15 -16 -17 17 -19 -20 21 -22 23 -24 24 -26
leaf_value=0.048251101780272143 -0.0016979817581575106 -0.11126047416572667 -0.0043107781423314456 0.0059882030597529865 -0.019430683492384672 0.0035788141024955902 0.11002861918696752 0.053816886577905301 -0.019430474964400486 0.048705904958104035 -0.055967776281870635 0.090380786809589025 -0.03741792557490959 0.011677211680834233 -0.040629067162395914 -0.020450723453262168 -0.043181374860023936 0.029173878453635244 -0.00070966444126725238 0.0081146458425701527 0.012175938319672871 0.00092690909287210374 -0.035355462639003556 0.086562464348382273 0.025998760510823372
leaf_weight=37.702807873487473 1153.3255415707827 7.4821044504642478 1283.9205438196659 650.82565522193909 208.01216800510883 137.54845553636551 12.841766864061354 45.587330356240273 139.85461187362671 60.991180256009102 27.958575010299683 16.49533411860466 215.00550207495689 59.404073722660542 43.858855947852135 311.46679938584566 34.695543646812439 32.31645018607378 23.468765243887901 535.69138485193253 512.69726550579071 91.397978499531746 38.87018708884716 17.848192542791367 245.50974167883396
leaf_count=175 5935 49 7027 3166 1150 740 72 243 749 326 150 90 1482 404 247 1942 184 173 129 2583 2559 428 188 83 1148
internal_value=0 -0.00484552 -0.0082481 0.00830334 -0.00357556 -0.00180165 0.00745905 0.00491956 0.000208875 0.00844717 -0.00647655 0.0231559 -0.0245285 -0.0172022 -0.00551089 -0.015303 0.00858319 -0.00827911 0.0368731 0.00588392 0.00257118 0.0118222 0.00517276 0.0225898 0.0301056
internal_weight=0 3349.44 2660.91 688.528 2067.55 1859.54 531.758 518.916 473.329 333.474 165.507 167.967 593.358 378.353 1327.78 370.871 106.976 67.012 39.9641 2595.34 1666.02 929.317 574.562 354.756 263.358
internal_count=31422 18498 15157 3341 11280 10130 2856 2784 2541 1792 890 902 3877 2395 7274 2346 576 357 219 12924 8494 4430 2771 1659 1231
is_linear=0
shrinkage=0.1


Tree=21
num_leaves=26
num_cat=0
split_feature=4 8 12 10 4 10 12 10 12 15 38 12 12 12 21 10 12 41 12 15 10 12 13 4 10
split_gain=18.5456 18.9572 15.0157 12.9997 12.2738 8.75331 8.19413 8.10444 8.50777 7.10032 6.54028 7.11938 6.41601 6.04229 6.00778 5.80674 6.20912 5.76464 6.99915 5.67895 5.40761 5.28532 5.15985 5.39273 7.67704
threshold=0.2142857142857143 1.0000000180025095e-35 0.00088192801748660063 0.077500000000000013 0.6428571428571429 0.012500000000000002 0.00048060454531844175 0.032500000000000008 0.0026057729736203854 1.0000000180025095e-35 1.0000000180025095e-35 0.0017307168308530708 0.0023437733928197146 0.00083857082971524396 0.0059166666666666682 0.012500000000000002 0.00028520525795730159 1.0000000180025095e-35 0.0010164086594604308 1.0000000180025095e-35 0.072500000000000023 0.00035706800011977126 0.0020633515827604659 0.35714285714285715 0.10750000000000001
decision_type=2 2 2 2 2 2 2 2 2 2 2 2 2 2 2 2 2 2 2 2 2 2 2 2 2
left_child=2 10 13 4 14 17 -6 8 -7 -9 20 -12 -8 -1 15 19 -17 18 -4 -3 -2 -18 23 -5 -25
right_child=1 3 5 22 6 7 12 9 -10 -11 11 -13 -14 -15 -16 16 21 -19 -20 -21 -22 -23 -24 24 -26
leaf_value=0.0033278878063461555 0.011982463915638994 -0.0099141316172382758 0.041827393418068098 -0.012927072111002726 -0.013445310256905896 0.044027689791473368 0.029534255445381588 0.029385794313733862 0.12990657422633378 -0.017724494344843498 -0.0015221789458347735 0.043559502348909089 -0.029491513116286207 -0.041845664988805216 -0.050891716218354102 0.044921312082919336 -0.056591536561888582 0.024425273531385225 -0.019790454325925182 -0.039046075670030871 0.039903651906252807 -0.0018922813768790612 -0.063732577521484077 -0.0066749053489639151 -0.051911466408571666
leaf_weight=1379.1537349298596 259.32433494925499 961.33632695674896 22.687742173671722 417.18561209738255 78.229556143283844 98.401319473981857 202.60762193799019 178.36077228188515 13.078999161720274 38.968128308653831 476.25155603885651 37.810052394866943 20.246434971690178 30.257838562130928 30.931796886026859 27.980437159538269 17.953994393348694 97.756623074412346 98.260276392102242 71.94178381562233 94.7496457695961 1100.8972884118557 26.882041856646538 60.849802896380424 97.972052089869976
leaf_count=6852 1223 5436 111 2493 414 469 1023 885 63 195 2305 183 113 150 186 153 109 476 499 413 434 6047 168 378 644
internal_value=0 -0.00407042 0.00781778 -0.0077125 -0.00454748 0.0218722 0.0143938 0.0321847 0.0541085 0.0209359 0.00899727 0.00179247 0.024169 0.00235765 -0.00712704 -0.00650582 -0.00160646 0.00636514 -0.00822701 -0.011943 0.0194558 -0.00277057 -0.0208995 -0.0188995 -0.0345837
internal_weight=0 3983.15 1956.93 3115.01 2512.13 547.514 301.084 328.809 111.48 217.329 868.136 514.062 222.854 1409.41 2211.04 2180.11 1146.83 218.705 120.948 1033.28 354.074 1118.85 602.89 576.007 158.822
internal_count=31422 21722 9700 17577 13894 2698 1550 1612 532 1080 4145 2488 1136 7002 12344 12158 6309 1086 610 5849 1657 6156 3683 3515 1022
is_linear=0
shrinkage=0.1


Tree=22
num_leaves=26
num_cat=0
split_feature=35 8 35 8 12 29 5 27 24 12 13 35 14 21 24 27 26 24 35 27 12 35 12 35 12
split_gain=40.0444 32.5814 14.8484 10.6147 9.79493 6.6827 6.99173 5.87147 7.3764 7.52227 5.51165 6.69734 5.3331 5.79572 5.3818 4.94402 4.82176 4.79257 5.36733 4.84125 5.49101 4.61301 4.97404 4.35533 6.34526
threshold=0.48404255319148942 1.0000000180025095e-35 0.27127659574468094 1.0000000180025095e-35 0.00089135251669311623 1.0000000180025095e-35 0.23333333333333336 0.70000000000000018 1.0000000180025095e-35 0.00076364643530856078 0.0010059482155353396 0.61170212765957455 1.0000000180025095e-35 2.7500000000000004e-06 1.0000000180025095e-35 0.70000000000000018 0.63888888888888895 1.0000000180025095e-35 0.3563829787234043 0.90000000000000013 0.00069332574782166078 0.16489361702127661 0.00045986914992364588 0.1223404255319149 0.00056145761595352887
decision_type=2 2 2 2 2 2 2 2 2 2 2 2 2 2 2 2 2 2 2 2 2 2 2 2 2
left_child=2 10 4 17 7 6 15 23 -9 21 -2 -12 13 -6 -14 -5 -3 -4 19 20 -19 -10 -23 24 -1
right_child=1 16 3 5 12 -7 -8 8 9 -11 11 -13 14 -15 -16 -17 -18 18 -20 -21 -22 22 -24 -25 -26
leaf_value=0.003171569980913501 0.0034710567088728364 -0.025126164898130066 0.021439960715216051 -0.0067240531565307725 0.022038148515605316 -0.035360855832103008 0.024299143185046577 0.024365935175285743 0.01532097085831037 0.071157184187755171 -0.00054132084820013554 0.097247919071191929 0.080329816922265651 -0.037880055964646692 0.023523111454165312 0.003417198516872751 -0.077574556068292638 -0.020983224635146847 -0.017095185188795988 0.070522238983568283 0.036543472166274064 -0.092845423639229319 -0.019455537113380099 0.0012179475232400624 0.075618854832799329
leaf_weight=31.187871247529984 449.59145776927471 880.21076049655676 292.99129486083984 1388.0483406633139 392.11453022062778 61.773625761270523 96.577319413423538 313.60363943874836 23.932460695505142 10.198585778474806 13.749609082937242 14.248714864253996 31.258860051631927 16.829167529940605 35.838356018066406 735.33993200957775 17.896505542099476 33.869971558451653 86.476237505674362 14.75767460465431 32.517289906740189 12.442610681056975 35.953171953558922 888.78681041300297 19.761300325393677
leaf_count=141 2171 5933 1323 7478 1855 363 483 1499 111 49 66 67 151 81 169 3843 124 160 427 69 154 61 175 4358 86
internal_value=0 -0.0149494 0.00451882 -0.000122226 0.0115435 -0.00291774 -0.00201469 0.00715374 0.0173652 -0.00923035 0.00615334 0.0492033 0.0238606 0.0195709 0.0499969 -0.0032118 -0.026172 0.0137246 0.000235088 0.0187114 0.00718494 -0.0205737 -0.0383367 0.00284862 0.0312831
internal_weight=0 1375.7 4554.26 2742.35 1811.91 2281.74 2219.97 1335.87 396.13 82.5268 477.59 27.9983 476.041 408.944 67.0972 2123.39 898.107 460.612 167.621 81.1449 66.3873 72.3282 48.3958 939.736 50.9492
internal_count=31397 8361 23036 14300 8736 12167 11804 6480 1895 396 2304 133 2256 1936 320 11321 6057 2133 810 383 314 347 236 4585 227
is_linear=0
shrinkage=0.1


Tree=23
num_leaves=26
num_cat=0
split_feature=1 12 12 15 12 4 21 24 22 4 12 12 12 1 12 0 29 12 12 4 12 12 12 12 15
split_gain=14.2475 5.68695 17.2374 7.5621 10.1427 6.18919 7.07059 6.91966 6.70598 6.43937 5.99451 5.35096 6.63168 5.88987 7.03411 5.25999 4.98759 4.80529 9.97336 4.94582 7.08896 4.99068 4.92128 4.44928 4.32992
threshold=0.68750000000000011 0.00050809952989789512 0.00046375422942180434 1.0000000180025095e-35 0.00065874928885828086 0.2142857142857143 0.0065000000000000014 1.0000000180025095e-35 1.0000000180025095e-35 0.35714285714285715 0.00074866005928676241 0.00065520855166631734 0.00053886576638620246 0.47916666666666669 0.00062884390813546139 0.055031100622012448 0.70000000000000018 0.00027009911069856576 0.00028520525795730159 0.2142857142857143 0.00093749438572326863 0.00032661616312842473 0.00083139204120130552 0.00057240919843099685 1.0000000180025095e-35
decision_type=2 2 2 2 2 2 2 2 2 2 2 2 2 2 2 2 2 2 2 2 2 2 2 2 2
left_child=1 2 -1 5 23 11 8 -8 9 16 -6 12 -3 14 -14 -13 -7 -2 -19 20 22 -21 -20 -5 -23
right_child=17 3 -4 4 10 6 7 -9 -10 -11 -12 15 13 -15 -16 -17 -18 18 19 21 -22 24 -24 -25 -26
leaf_value=-0.0022126903515246707 -0.029109960986830469 0.020657084850991946 -0.028403334948614741 -0.010414962351820706 -0.072682428062565238 -0.008288671481597917 -0.0067603942838902441 -0.08708137191029458 0.0074538510201239659 0.008400576510965407 -0.019145492438557746 -0.02546662739483917 0.0058475688501932379 -0.048394537668034171 -0.071355950569746238 0.016404495102286802 -0.058993782062687662 0.078218715659515603 0.011697636997102089 -0.060722246771153857 0.034870612112654041 0.006909619997215107 -0.035509098356734235 0.042097109587869608 -0.015573076880251653
leaf_weight=1134.4828314334154 33.616600424051285 71.260206237435341 322.81585744768381 27.871628060936928 23.019815348088741 867.830555729568 24.827406108379364 18.907835148274899 634.31038376688957 262.64668935537338 229.89722622931004 31.792629078030586 92.6280218064785 41.568028509616852 13.523481786251066 529.76536050438881 19.847572937607765 20.600649461150169 373.11681406199932 11.841587647795675 143.0956993997097 835.997903034091 23.467425420880318 38.267785549163818 95.426733210682869
leaf_count=6250 165 358 1803 148 129 4836 148 112 3521 1507 1293 163 469 207 69 2657 117 100 1712 63 646 4112 107 205 500
internal_value=0 -0.00291028 -0.00801477 -0.00036948 -0.0149019 0.00140753 -0.00177457 -0.041499 -0.000800725 -0.00535298 -0.0240207 0.00886223 -0.00439477 -0.0164839 -0.0039823 0.0140329 -0.00942307 0.00827796 0.00911429 0.0081539 0.0157892 0.00378481 0.00890271 0.019959 0.00460556
internal_weight=0 4385.26 1457.3 2927.96 319.056 2608.91 1828.37 43.7352 1784.64 1150.32 252.917 780.538 218.98 147.72 106.152 561.558 887.678 1537.16 1503.55 1482.95 539.68 943.266 396.584 66.1394 931.425
internal_count=31397 23992 8053 15939 1775 14164 10241 260 9981 6460 1422 3923 1103 745 538 2820 4953 7405 7240 7140 2465 4675 1819 353 4612
is_linear=0
shrinkage=0.1


Tree=24
num_leaves=26
num_cat=0
split_feature=35 26 36 35 13 35 35 27 35 4 13 35 34 20 15 26 35 27 35 4 27 4 13 13 23
split_gain=31.847 11.1214 9.30519 7.2398 6.66728 6.19541 6.90814 5.53393 5.5172 5.14729 4.47292 4.46048 7.26619 4.99068 4.84788 4.48393 4.70775 4.09918 4.72335 3.96311 3.89202 4.27421 8.09341 5.55846 4.12688
threshold=0.39893617021276601 0.58333333333333337 1.0000000180025095e-35 0.14361702127659579 0.00040135018318034006 0.50531914893617036 0.80319148936170226 0.70000000000000018 0.72872340425531923 0.2142857142857143 0.001252932943646318 0.53723404255319163 1.0000000180025095e-35 1.0000000180025095e-35 1.0000000180025095e-35 0.19444444444444445 0.47340425531914898 0.50000000000000011 0.57978723404255328 0.35714285714285715 0.70000000000000018 0.2142857142857143 0.0020118964310706791 1.0000000180025095e-35 1.0000000180025095e-35
decision_type=2 2 2 2 2 2 2 2 2 2 2 2 2 2 2 2 2 2 2 2 2 2 2 2 2
left_child=3 2 5 -1 7 -2 10 8 11 -3 -7 13 -13 -4 15 16 -15 19 -19 -11 21 22 23 -5 -22
right_child=1 9 4 20 -6 6 -8 -9 -10 17 -12 12 -14 14 -16 -17 -18 18 -20 -21 24 -23 -24 -25 -26
leaf_value=0.022521772600126583 -0.0052689731252121112 -0.003849730530652155 0.033051693421999623 0.0079320719821492202 0.035741366432389947 -0.019178770010743616 0.039392625415634513 0.013789425559754018 0.031257610336232311 -0.063216090710467104 -0.054803749126831058 -0.025879283776097252 0.019070800442434314 -0.0032216134528560525 -0.044874147767537745 -0.010090323529788482 0.045201004959595462 0.0010209794498786647 -0.079990065928357126 -0.026145716483134591 0.014096790616783803 -0.0010176080712508764 0.08751174723971121 -0.043736663097107997 0.00086358710448224531
leaf_weight=242.83846195042133 600.62967500090599 55.144930273294449 39.235167361795902 851.72275850176811 52.248640619218349 563.52486499398947 19.279250934720039 189.04381693899632 37.627117082476616 74.165309116244316 37.618178732693195 209.46166939288378 43.400368206202984 44.450721964240074 27.539139173924923 165.04347889870405 36.585530892014503 38.543022103607655 8.8457475230097753 47.30336394906044 704.49798922240734 1435.4710513427854 12.563178256154059 21.339413046836853 354.27241350710392
leaf_count=1094 3312 313 230 4107 298 3547 97 1029 211 475 246 1289 260 238 158 911 211 223 59 307 3448 7388 61 104 1745
internal_value=0 -0.00922309 -0.00692771 0.00584336 0.00114143 -0.0125099 -0.0195188 -0.00113926 -0.00581783 -0.0303878 -0.0214091 -0.00828488 -0.0181618 -0.000299977 -0.0050846 -0.000629236 0.0186323 -0.039051 -0.0140881 -0.0487848 0.00464486 0.00235263 0.00781599 0.00666849 0.00966943
internal_weight=0 2289.69 2065.69 3622.71 844.636 1221.05 620.422 792.387 603.343 224.002 601.143 565.716 252.862 312.854 273.619 246.08 81.0363 168.857 47.3888 121.469 3379.87 2321.1 885.625 873.062 1058.77
internal_count=31361 13414 12037 17947 4835 7202 3890 4537 3508 1377 3793 3297 1549 1748 1518 1360 449 1064 282 782 16853 11660 4272 4211 5193
is_linear=0
shrinkage=0.1


Tree=25
num_leaves=26
num_cat=0
split_feature=1 40 4 10 36 1 10 10 1 10 10 34 28 4 21 1 10 34 23 11 1 23 10 4 11
split_gain=12.4129 7.53757 7.00036 6.14946 5.36022 6.81168 5.80135 6.78561 5.48369 5.26123 12.343 7.5559 5.5829 5.11687 5.10656 5.00995 4.65036 5.8014 4.57343 6.85188 4.54755 6.44065 4.14965 3.98356 4.49196
threshold=0.47916666666666669 1.0000000180025095e-35 0.2142857142857143 0.16250000000000003 1.0000000180025095e-35 1.0000000180025095e-35 0.0075000000000000006 0.12750000000000003 0.27083333333333337 0.042500000000000003 0.0075000000000000006 0.58333333333333337 1.0000000180025095e-35 0.50000000000000011 7.2500000000000009e-06 0.89583333333333337 0.10250000000000002 1.0000000180025095e-35 1.0000000180025095e-35 1.0000000180025095e-35 0.27083333333333337 1.0000000180025095e-35 0.10750000000000001 0.35714285714285715 1.0000000180025095e-35
decision_type=2 2 2 2 2 2 2 2 2 2 2 2 2 2 2 2 2 2 2 2 2 2 2 2 2
left_child=1 2 16 13 5 -3 8 22 -6 10 14 12 -12 -4 15 -2 17 -1 -17 -20 21 -15 -8 24 -24
right_child=9 4 3 -5 6 -7 7 -9 -10 -11 11 -13 -14 20 -16 18 -18 -19 19 -21 -22 -23 23 -25 -26
leaf_value=0.0046582560286018738 -0.0067370007340533736 0.016532003912379103 -0.0073644521466902056 0.037130818994686537 0.0098265848465346698 -0.014390593278801461 0.005871594304486534 -0.025547814588977143 -0.023486063346881896 -0.00078771808815397161 0.017462061426528206 0.07748564496021354 -0.023821236522398748 0.026816934451916082 0.069470805020414583 -0.0019835433552011991 0.051765633509599833 0.041026915265635185 -0.046548941881067535 0.030537996743845799 0.025745668271720396 -0.052605345371682745 0.026704237351698981 -0.013176462794968142 0.11862986820936826
leaf_weight=296.47101549804211 527.94531682133675 76.222200155258179 809.12395614385605 37.13166755437851 68.04611000418663 1085.4222198426723 445.61465182155371 67.610254146158695 180.26239114999771 941.95828076452017 771.11779642850161 20.302939742803574 34.198659062385559 19.764531061053276 10.433408275246618 156.51420825719833 28.944549292325974 51.489272221922874 12.73869416117668 121.04868797957897 94.216165445744991 21.110690608620644 12.132374763488771 8.6452017575502378 9.4914921447634715
leaf_count=1472 2728 406 4653 233 379 6159 2422 402 1026 4784 3693 95 179 112 53 749 150 250 59 566 507 111 65 55 53
internal_value=0 -0.00405803 0.00166299 -0.00278563 -0.00803622 -0.0123611 -0.00169052 0.00409429 -0.0143547 0.00517739 0.00857429 0.0172281 0.0157082 -0.004356 -4.68111e-05 -0.000933965 0.0132474 0.0100416 0.00961741 0.0231936 0.0136585 -0.0141872 0.00830691 0.044139 0.0670817
internal_weight=0 3311.7 1358.25 981.347 1953.45 1161.64 791.802 543.494 248.309 2596.26 1654.3 825.619 805.316 944.215 828.68 818.247 376.905 347.96 290.302 133.787 135.091 40.8752 475.884 30.2691 21.6239
internal_count=31361 18455 7488 5616 10967 6565 4402 2997 1405 12906 8122 3967 3872 5383 4155 4102 1872 1722 1374 625 730 223 2595 173 118
is_linear=0
shrinkage=0.1


Tree=26
num_leaves=26
num_cat=0
split_feature=8 4 40 12 10 24 10 10 12 13 4 12 12 12 10 10 10 12 0 12 12 0 24 0 12
split_gain=8.85584 10.6495 8.83555 9.91142 8.80802 7.85778 8.72099 8.59869 7.69529 7.62703 7.61481 7.29246 6.34891 6.21762 7.272 10.2778 9.85899 5.78832 6.52659 5.69741 5.40384 5.11459 9.27048 6.70812 5.68475
threshold=1.0000000180025095e-35 0.2142857142857143 1.0000000180025095e-35 0.0018886426924574066 0.077500000000000013 1.0000000180025095e-35 0.022500000000000003 0.082500000000000018 0.0012574707309039735 0.00034474951632157419 0.6428571428571429 0.00025264993861724109 0.00029994460580291647 0.0006858101027038358 0.012500000000000002 0.077500000000000013 0.092500000000000013 0.00048060454531844175 0.83480669613392278 0.00043418570530287152 0.001705991556127796 0.22622452449048985 1.0000000180025095e-35 0.46965939318786382 0.0014061367787525827
decision_type=2 2 2 2 2 2 2 2 2 2 2 2 2 2 2 2 2 2 2 2 2 2 2 2 2
left_child=5 2 3 19 10 9 -7 8 -8 -1 -3 -4 -13 -14 -15 21 -17 -12 -19 -2 -18 22 -16 -23 -25
right_child=1 4 11 -5 -6 6 7 -9 -10 -11 17 12 13 14 15 16 20 18 -20 -21 -22 23 -24 24 -26
leaf_value=0.010667504328410907 0.0327430377284747 -0.0054534626376033599 -0.052157024710347555 0.056972043129202649 -0.017021195842053648 0.01117304726895124 -0.049666397185652029 0.016248843477466787 0.018261141819393336 0.056984708292206393 -0.012210282948749337 0.044246088268090955 -0.0073782777725937276 -0.0086333221347753633 -0.031122999192717972 -0.088065081717022833 0.020510405639434719 0.011725786925025983 0.056513767151024734 0.0052763621380201636 -0.042025644869426768 0.073285269738063874 0.068618622531425838 0.0088099132559195728 0.059734832813440081
leaf_weight=738.19727835059166 90.471976682543755 2188.9387317672372 27.548493638634682 48.517381846904755 586.80256633460522 147.7666906863451 91.385508581995964 41.023120641708374 20.386020973324776 37.359490528702736 76.695926144719124 31.410433799028397 671.04399631172419 163.78292511403561 28.8913554251194 13.761621713638304 53.348728969693184 185.07018186897039 39.493351846933365 457.55731865763664 18.645468056201935 43.416964456439018 13.754836663603781 64.818603485822678 33.149402543902397
leaf_count=3461 445 12346 139 238 3681 721 449 202 99 172 410 159 3407 829 144 71 273 938 195 2187 98 209 64 307 158
internal_value=0 -0.00245045 0.00375322 0.0136484 -0.0059993 0.00757958 -0.00614556 -0.0228982 -0.0372717 0.0128994 -0.0034018 -0.00131938 -8.60418e-05 -0.0013472 0.0079858 0.0180772 -0.0105101 0.0115035 0.0196052 0.00981183 0.00430605 0.0314018 0.00103286 0.0405577 0.0260475
internal_weight=0 4837.12 1760.12 596.547 3077 1076.12 300.561 152.795 111.772 775.557 2490.2 1163.57 1136.02 1104.61 433.57 269.787 85.7558 301.259 224.564 548.029 71.9942 184.031 42.6462 141.385 97.968
internal_count=31402 26298 8728 2870 17570 5104 1471 750 548 3633 13889 5858 5719 5560 2153 1324 442 1543 1133 2632 371 882 208 674 465
is_linear=0
shrinkage=0.1


Tree=27
num_leaves=26
num_cat=0
split_feature=1 27 12 12 4 4 12 12 1 36 26 12 12 27 4 12 12 12 12 12 12 34 12 12 12
split_gain=10.3862 11.1572 4.98518 11.2275 4.57296 5.97455 6.48026 6.58443 5.99061 7.07905 5.11541 4.60131 6.76276 6.58654 4.39583 3.92953 5.5577 3.55935 3.55722 4.02904 5.26166 3.39057 3.23438 8.36178 3.26115
threshold=0.68750000000000011 0.70000000000000018 0.00050809952989789512 0.00045525795730155404 0.2142857142857143 0.50000000000000011 0.0013776686528730127 0.0014061367787525827 0.27083333333333337 1.0000000180025095e-35 0.58333333333333337 0.0023437733928197146 0.0011079812558014194 0.3000000000000001 0.92857142857142871 0.0062484205168128878 0.0036582627182082223 0.0013643366170614129 0.00025264993861724109 0.0003600622810432075 0.00042691708836123003 0.58333333333333337 0.0002785280114980388 0.00028520525795730159 0.00033461089319399944
decision_type=2 2 2 2 2 2 2 2 2 2 2 2 2 2 2 2 2 2 2 2 2 2 2 2 2
left_child=1 2 3 21 -4 6 8 -8 9 -6 15 12 14 17 -7 16 -9 -14 -3 -20 -21 -1 -2 -24 -25
right_child=22 18 4 -5 5 11 7 10 -10 -11 -12 -13 13 -15 -16 -17 -18 -19 19 20 -22 -23 23 24 -26
leaf_value=-0.0066245636279809008 -0.023661092286415178 -0.027767012730196928 0.0037448600489105241 -0.02872615270329398 -0.039564713317446328 0.0035155163962666543 -0.10185948409848121 -0.013659495563789582 -0.00069894100995726571 0.0018168339559702816 -0.060745680187518192 -0.031146487844602895 0.046340976356421183 0.05967719587931939 -0.056823113981851664 0.040840512970876743 -0.06766771510181184 -0.016036092377257252 0.027134145990258964 -0.047192358203504356 0.0055491958308955674 0.033959570185583703 0.071630055089215994 -0.031243125241228093 0.0068897817873166713
leaf_weight=772.35921601951122 34.810502409934998 31.522496476769447 643.33513260632753 283.57286344468594 96.27790991216898 190.23133057355881 9.8940217718482 262.31962455064058 665.3375873491168 72.397831425070763 26.932950839400291 30.557682290673256 13.602463737130163 44.825718998908997 12.892118275165556 11.993649683892725 20.554336912930012 27.921144790947437 85.677555367350578 19.271342389285564 1018.4314313456416 21.144805401563644 19.859042033553123 22.769265115261078 1468.9365311935544
leaf_count=4383 173 169 3235 1628 556 1084 57 1545 3720 404 169 203 86 244 70 78 133 183 450 105 5366 117 93 117 7034
internal_value=0 -0.00306673 -0.00610255 -0.0116467 -0.00329752 -0.00634733 -0.00967015 -0.0214935 -0.00496719 -0.0217996 -0.0190207 0.00575414 0.00965158 0.0330944 -0.000311161 -0.0152075 -0.017586 0.00438306 0.00536055 0.00629066 0.00456914 -0.00554234 0.00647159 0.00716593 0.00630732
internal_weight=0 4361.05 3206.15 1077.08 2129.07 1485.74 1165.71 331.695 834.013 168.676 321.801 320.03 289.473 86.3493 203.123 294.868 282.874 41.5236 1154.9 1123.38 1037.7 793.504 1546.38 1511.56 1491.71
internal_count=31402 23985 17895 6128 11767 8532 6662 1982 4680 960 1925 1870 1667 513 1154 1756 1678 269 6090 5921 5471 4500 7417 7244 7151
is_linear=0
shrinkage=0.1


Tree=28
num_leaves=26
num_cat=0
split_feature=35 8 35 5 35 40 5 34 34 5 35 13 35 40 29 29 36 34 35 26 34 13 1 8 5
split_gain=24.332 26.4247 9.50174 8.53468 7.27184 9.4492 5.93155 6.69069 5.92181 5.90488 6.94751 5.88672 5.62911 5.59772 5.57238 5.50305 5.71303 5.42035 5.11865 4.62051 4.46341 4.3574 4.34114 4.41717 4.31668
threshold=0.39893617021276601 1.0000000180025095e-35 0.57978723404255328 0.23333333333333336 0.27127659574468094 1.0000000180025095e-35 1.0000000180025095e-35 0.58333333333333337 0.58333333333333337 0.10000000000000002 0.1542553191489362 0.0032929238875396209 0.1223404255319149 1.0000000180025095e-35 0.3000000000000001 1.0000000180025095e-35 1.0000000180025095e-35 1.0000000180025095e-35 0.80319148936170226 0.63888888888888895 1.0000000180025095e-35 0.00063634586094759823 0.47916666666666669 1.0000000180025095e-35 1.0000000180025095e-35
decision_type=2 2 2 2 2 2 2 2 2 2 2 2 2 2 2 2 2 2 2 2 2 2 2 2 2
left_child=3 -2 13 4 9 8 -7 19 15 11 -11 12 -1 14 20 -6 -17 -14 -4 21 -3 22 23 -8 -22
right_child=1 2 18 -5 5 6 7 -9 -10 10 -12 -13 17 -15 -16 16 -18 -19 -20 -21 24 -23 -24 -25 -26
leaf_value=0.031800511397491259 0.0084128682580708932 0.0034403802267510249 -0.031112537103041928 0.032504727580343222 0.0093619279426275983 -0.00051785730255818666 0.0122321765486758 0.067307122130117733 0.067066241729500972 0.09398089576688895 0.01917309288987756 0.075134170938923828 0.0070907941630987785 -0.016301794356018157 -0.062918208069577541 -0.081146648368151525 0.0074385645373067355 -0.0096862572636398636 0.026347129246651599 -0.081884740510040688 -0.0061787613141711098 -0.054750019568820744 -0.0017437954865102295 -0.031071024817679323 -0.061265729560600071
leaf_weight=79.450117483735085 678.9273410141468 401.30692478269339 373.2613258138299 110.14051043987274 623.10316648334265 663.00894592702389 28.004503756761551 9.4023886471986753 17.057629004120827 13.134469479322432 228.22355054318905 12.373407930135725 1230.9190773069859 723.92566277831793 14.7302970290184 13.999435067176819 15.144764438271523 228.2613862901926 16.163845658302307 11.022730752825735 41.268189758062363 27.159382969141006 169.95489658415318 147.68123516440392 21.730845741927624
leaf_count=347 3247 2390 2810 520 3146 3399 133 45 83 58 1096 61 5941 4419 98 81 80 1094 96 59 244 144 835 835 126
internal_value=0 -0.0081054 -0.0151485 0.00509285 0.00423445 -0.000398947 -0.00628998 -0.0160207 0.00889683 0.00869544 0.0232466 0.00643069 0.00587779 -0.0107526 -0.00236538 0.00737465 -0.0350926 0.00446592 -0.028726 -0.0180635 -0.000443015 -0.0161749 -0.013142 -0.024165 -0.02519
internal_weight=0 2271.31 1592.39 3628.04 3517.9 1725.54 1056.23 393.225 669.305 1792.36 241.358 1551 1538.63 1202.96 479.036 652.247 29.1442 1459.18 389.425 383.823 464.306 372.8 345.641 175.686 62.999
internal_count=31387 13430 10183 17957 17437 8840 5450 2051 3390 8597 1154 7443 7382 7277 2858 3307 161 7035 2906 2006 2760 1947 1803 968 370
is_linear=0
shrinkage=0.1


Tree=29
num_leaves=26
num_cat=0
split_feature=27 34 15 19 9 5 5 23 9 9 9 34 34 37 5 27 28 27 23 38 37 38 28 5 5
split_gain=5.96114 5.91502 4.24742 3.69559 3.54064 5.13479 5.44586 4.30774 3.2804 2.9197 6.71154 4.5148 4.04682 3.23665 3.91238 3.58121 3.10893 3.2915 4.69722 2.6377 2.27144 2.18985 3.18275 1.99983 2.52995
threshold=0.70000000000000018 0.58333333333333337 1.0000000180025095e-35 1.0000000180025095e-35 0.3000000000000001 1.0000000180025095e-35 0.16666666666666671 1.0000000180025095e-35 1.0000000180025095e-35 0.3000000000000001 0.50000000000000011 1.0000000180025095e-35 1.0000000180025095e-35 1.0000000180025095e-35 0.23333333333333336 0.3000000000000001 0.65625000000000011 0.3000000000000001 1.0000000180025095e-35 1.0000000180025095e-35 1.0000000180025095e-35 1.0000000180025095e-35 0.65625000000000011 0.16666666666666671 1.0000000180025095e-35
decision_type=2 2 2 2 2 2 2 2 2 2 2 2 2 2 2 2 2 2 2 2 2 2 2 2 2
left_child=1 8 3 -3 5 -2 7 -7 -1 12 11 20 13 14 15 21 17 -16 -19 -14 -11 -10 -23 24 -12
right_child=4 2 -4 -5 -6 6 -8 -9 9 10 23 -13 19 -15 16 -17 -18 18 -20 -21 -22 22 -24 -25 -26
leaf_value=0.01958457274455308 0.0074336243311688421 0.044227614196465648 -0.039810616918391467 0.0028510131532394171 0.017433001108940221 -0.002898740970526034 0.012327159398532222 -0.025266174287681655 -0.0040398152598280987 0.010085348471397148 -0.013701856296822364 0.041632205566847852 -0.0048412991010186339 -0.01736950840283202 0.040304964497608786 -0.00042730995909068817 0.057333142378749827 -0.048333985162069562 0.018225665193208392 -0.020651538598693751 -0.030814759124098243 -0.017382756068259893 0.021207257315956535 -0.046642570576689163 0.010484777551864397
leaf_weight=65.41947028785944 1007.1145104393363 56.970004789531231 10.083710417151449 34.807175695896149 201.29558140039444 231.76865324378014 133.9599521458149 137.06650973856449 481.29083294421434 273.64071383327246 158.38124494999647 46.531604051589966 198.98920973390341 145.14427521079779 23.08249144256115 1986.0763265788555 16.953918769955635 16.672827661037445 29.110522165894508 224.94967209547758 14.281047202646731 302.8254556208849 22.981505624949932 13.593464471399782 59.464800462126732
leaf_count=350 5185 299 54 182 978 1197 654 708 2820 1425 787 243 1067 837 135 10372 91 88 144 1211 77 1968 151 68 296
internal_value=0 -0.00203232 0.0217693 0.0285418 0.00497431 0.00331296 -0.00493966 -0.0112126 -0.00262678 -0.00298893 0.00366788 0.012728 -0.00408162 -0.00279868 -0.00206388 -0.00271024 0.018966 0.00951173 -0.00600001 -0.0132319 0.00805458 -0.00832723 -0.0146589 -0.00942223 -0.00709692
internal_weight=0 4181.25 101.861 91.7772 1711.21 1509.91 502.795 368.835 4079.39 4013.97 565.893 334.453 3448.08 3024.14 2878.99 2793.17 85.8198 68.8658 45.7833 423.939 287.922 807.098 325.807 231.44 217.846
internal_count=31387 22665 535 481 8722 7744 2559 1905 22130 21780 2896 1745 18884 16606 15769 15311 458 367 232 2278 1502 4939 2119 1151 1083
is_linear=0
shrinkage=0.1


Tree=30
num_leaves=26
num_cat=0
split_feature=35 35 35 5 0 0 29 22 5 40 35 9 35 0 4 0 9 0 0 28 0 27 0 9 0
split_gain=20.9366 7.16169 6.65346 10.163 6.43558 5.92095 5.41129 8.8696 5.32854 6.18441 8.69711 8.17843 6.18767 6.38787 5.06223 7.32612 5.05555 4.69624 5.29331 4.65447 5.19233 4.71727 4.584 4.42962 5.72601
threshold=0.48404255319148942 0.72872340425531923 0.14361702127659579 1.0000000180025095e-35 0.60330206604132097 0.61962239244784911 1.0000000180025095e-35 1.0000000180025095e-35 0.23333333333333336 1.0000000180025095e-35 0.27127659574468094 0.3000000000000001 0.47340425531914898 0.39045780915618317 0.35714285714285715 0.38250765015300314 0.90000000000000013 0.63169263385267715 0.35836716734334695 0.46875000000000006 0.38250765015300314 0.50000000000000011 0.59116182323646482 0.3000000000000001 0.4650893017860358
decision_type=2 2 2 2 2 2 2 2 2 2 2 2 2 2 2 2 2 2 2 2 2 2 2 2 2
left_child=2 4 3 -1 23 -6 8 17 9 12 22 -12 -4 -14 -13 -16 -7 18 -8 -9 -21 -22 -11 -2 -25
right_child=1 -3 6 -5 5 16 7 19 -10 10 11 14 13 -15 15 -17 -18 -19 -20 20 21 -23 -24 24 -26
leaf_value=0.010293379123540673 -0.021719730760763469 0.012608963800952151 0.0064417979304563222 0.06480387843013341 0.048661107524250818 -0.0048401279292286008 -0.033658733212702172 0.050327220789205977 0.022475489586822509 0.013108865665489964 -0.0077178376191021124 0.0065059171314157411 -0.0056691733582567971 0.079176404457607416 0.10432892921570125 0.012447649311828594 -0.069747105104144155 -0.0078141121877450068 -0.10269630753452291 0.029393511541179584 -0.058408517050190026 0.025240636795261309 -0.0012626459971347656 -0.010535974380791067 0.057458088665674124
leaf_weight=203.76387047767639 652.12194591760635 118.61815650761127 1525.5266121849418 41.113392144441605 20.26246352493763 455.67351131141186 29.810711033642292 19.493378989398479 138.30193462967873 534.00580154359341 1381.7936370894313 135.45839734375477 14.175355181097983 23.668232455849648 14.290245085954664 22.141624048352242 12.326680846512316 28.0639718323946 17.738526687026024 23.210620880126953 22.04686246812344 9.6994828134775144 379.666893273592 56.565130241215229 15.85565262287855
leaf_count=912 4165 697 7637 180 126 2862 173 101 665 2589 7347 684 79 128 72 111 70 154 103 121 120 50 1827 338 93
internal_value=0 -0.0108399 0.00341226 0.0194478 -0.0131338 -0.00425852 0.00250296 -0.016153 0.00317462 0.00251223 -0.000605522 -0.00515862 0.00743313 0.0473792 0.0154109 0.0485043 -0.00655101 -0.0402784 -0.0594263 0.00834101 -0.0065406 -0.0328321 0.00713628 -0.0191139 0.00434215
internal_weight=0 1331.42 4563.97 244.877 1212.81 488.263 4319.09 150.064 4169.03 4030.73 2467.36 1553.68 1563.37 37.8436 171.89 36.4319 468 75.6132 47.5492 74.4503 54.957 31.7463 913.673 724.543 72.4208
internal_count=31404 8351 23053 1092 7654 3058 21961 822 21139 20474 12630 8214 7844 207 867 183 2932 430 276 392 291 170 4416 4596 431
is_linear=0
shrinkage=0.1


Tree=31
num_leaves=26
num_cat=0
split_feature=15 1 12 12 12 37 24 14 0 12 0 12 7 36 13 1 0 12 12 0 0 29 0 0 0
split_gain=8.50563 7.20163 6.18508 6.40362 5.26228 6.85795 7.15321 6.94297 6.84101 6.02748 6.01991 6.07282 5.1089 5.0862 8.19561 4.93751 4.80805 4.6989 4.6767 5.88762 4.67227 4.58298 4.80687 4.42934 4.38122
threshold=1.0000000180025095e-35 0.47916666666666669 0.00065874928885828086 0.00074866005928676241 0.00080825373536545211 1.0000000180025095e-35 1.0000000180025095e-35 1.0000000180025095e-35 0.74966499329986613 0.001547668952301105 0.28041560831216633 0.0029037039255022908 1.0000000180025095e-35 1.0000000180025095e-35 0.0030847363438027417 0.89583333333333337 0.039770795415908326 0.00046727999520915052 0.0013255307362936791 0.47333946678933586 0.99216984339686809 0.50000000000000011 0.051011020220404414 0.99216984339686809 0.074851497029940608
decision_type=2 2 2 2 2 2 2 2 2 2 2 2 2 2 2 2 2 2 2 2 2 2 2 2 2
left_child=1 13 12 -4 23 6 7 -6 18 -7 -8 -12 17 16 20 -5 -1 -2 -9 -20 -15 22 -18 -3 -24
right_child=2 4 3 15 5 9 10 8 -10 -11 11 -13 -14 14 -16 -17 21 -19 19 -21 -22 -23 24 -25 -26
leaf_value=-0.030827833593487237 -0.0012728295574663277 0.0023350425765261552 -0.063829233194626953 -0.021081304605798504 0.0042699291878816534 -0.0035860676211999275 0.0022410598638271432 0.10271150434151971 -0.026215643896283804 -0.086555371571049533 0.042130097687198664 -0.02594666773653842 -0.0028801560998564305 0.0016088159771748527 0.072740407983746647 0.013266358667642553 0.044118147209089693 0.10212753168106975 -0.012410838679853028 0.089809734195206076 0.067933704768544087 -0.040851205411287145 -0.036416286837356995 -0.059051513693415339 -0.0032316086135077563
leaf_weight=70.430272042751312 8.3094447851181048 1431.40588452667 30.245713017880917 264.26438028365374 544.34512987732887 30.438158236443996 68.453865595161915 16.705943137407303 11.133254565298556 12.301299571990965 171.76819598674774 14.174546644091604 199.37789388000965 1173.7233403474092 16.708085894584656 49.704454466700554 20.982681378722191 9.3020957037806493 12.664553493261339 10.138390235602854 10.718830242753027 33.403830073773861 40.785901188850403 11.850902095437048 1628.6449519321322
leaf_count=413 47 7088 172 1488 2709 154 329 83 57 69 812 70 1060 6476 93 243 120 51 66 50 58 210 237 59 9190
internal_value=0 0.00140042 -0.0115424 -0.0198777 0.00556312 0.0116009 0.0135681 0.00756603 0.0429834 -0.0274805 0.0276035 0.0369373 0.00167738 -0.00184485 0.00319114 -0.0156418 -0.00521651 0.053307 0.0624984 0.0330108 0.00220955 -0.00416975 -0.00344454 0.00183056 -0.00404271
internal_weight=0 5330.78 561.204 344.215 2335.38 892.123 849.384 594.987 50.6421 42.7395 254.397 185.943 216.989 2995.4 1201.15 313.969 1794.25 17.6115 39.5089 22.8029 1184.44 1723.82 1690.41 1443.26 1669.43
internal_count=31404 28343 3061 1903 11546 4399 4176 2965 256 223 1211 882 1158 16797 6627 1731 10170 98 199 116 6534 9757 9547 7147 9427
is_linear=0
shrinkage=0.1


Tree=32
num_leaves=26
num_cat=0
split_feature=34 40 10 12 9 4 36 12 10 4 4 12 12 5 10 5 12 10 10 12 10 10 34 10 4
split_gain=4.77207 5.65826 8.70713 8.31248 7.19183 16.0374 10.4258 6.78405 6.45817 5.97254 8.23451 15.3355 12.0515 6.8349 6.20745 5.73559 5.46243 8.91475 6.08648 5.42968 5.34309 5.05223 4.82741 7.9981 5.29716
threshold=0.58333333333333337 1.0000000180025095e-35 0.13750000000000004 0.000689006497589604 0.3000000000000001 0.35714285714285715 1.0000000180025095e-35 0.00078461388747492295 0.0075000000000000006 0.50000000000000011 0.2142857142857143 0.00080863550618319013 0.00085366200556936261 0.10000000000000002 0.042500000000000003 0.23333333333333336 0.00074303081115070226 0.027500000000000004 0.012500000000000002 0.0010708297152438844 0.0075000000000000006 1.0000000180025095e-35 1.0000000180025095e-35 0.11250000000000002 0.35714285714285715
decision_type=2 2 2 2 2 2 2 2 2 2 2 2 2 2 2 2 2 2 2 2 2 2 2 2 2
left_child=1 2 3 21 15 16 8 -5 -7 10 12 14 -9 -14 -12 22 17 -6 19 -18 -17 -1 24 -24 -3
right_child=-2 4 -4 7 5 6 -8 9 -10 -11 11 -13 13 -15 -16 20 18 -19 -20 -21 -22 -23 23 -25 -26
leaf_value=-0.013131628521076594 0.017408098632679711 -0.001906287860857921 0.02842520884470616 -0.023088765264905498 0.00098922469457085713 0.055130421075658867 0.093288101620470743 -0.044183598171522009 -0.010378458318572687 0.023283502198411264 0.022155124435172171 -0.012278639922066792 0.027682305056728501 -0.020555094361191083 0.10148779453511564 -0.020753967724986316 0.030263743569597309 -0.045498378793480392 0.043409845760682207 -0.024344209491838929 0.034676093535029678 0.011920483030661955 -0.011814448703185225 -0.064682545636799663 -0.013423778846491789
leaf_weight=89.794927351176739 151.61233817785978 2131.6203768476844 130.64108219742775 154.15537362545729 173.76578734815121 29.675876475870609 31.036040388047695 33.095154985785484 30.507080361247063 94.996902920305729 30.210015371441841 673.78275594115257 193.98063695430756 34.601183459162712 14.664365559816359 23.572265416383743 30.947895780205727 54.082575015723705 49.087605908513069 44.226559467613697 66.192296735942364 775.98704309016466 321.19977682083845 31.422631658613682 491.43430197238922
leaf_count=476 779 11314 765 794 880 155 160 156 160 487 160 3750 906 164 78 124 151 272 240 222 330 4022 1695 180 2964
internal_value=0 -0.000566202 0.00337743 0.0018154 -0.00306815 0.00883626 0.0462044 -0.00346976 0.0219135 -0.000656696 -0.00297718 -0.00850804 0.0122102 0.0203778 0.0480935 -0.00478999 -0.000842752 -0.0100425 0.0160212 -0.0018551 0.0201134 0.00932149 -0.00554143 -0.0165273 -0.00406434
internal_weight=0 5734.68 2225.91 2095.27 3508.77 443.329 91.219 1229.49 60.183 1075.33 980.334 718.657 261.677 228.582 44.8744 3065.44 352.11 227.848 124.262 75.1745 89.7646 865.782 2975.68 352.622 2623.05
internal_count=31384 30605 11758 10993 18847 2240 475 6495 315 5701 5214 3988 1226 1070 238 16607 1765 1152 613 373 454 4498 16153 1875 14278
is_linear=0
shrinkage=0.1


Tree=33
num_leaves=26
num_cat=0
split_feature=35 8 10 10 10 5 24 35 0 1 0 4 10 5 0 0 0 4 35 28 0 0 28 0 0
split_gain=16.9754 19.1431 8.19925 6.40448 8.04183 8.53896 5.99247 5.85508 5.72137 5.69301 8.49121 5.85599 5.09447 5.23514 5.34588 5.8312 5.0531 4.81156 4.72708 4.54338 5.75913 8.04016 4.22738 5.51747 5.27116
threshold=0.40957446808510639 1.0000000180025095e-35 0.087500000000000008 0.10250000000000002 0.11250000000000002 1.0000000180025095e-35 1.0000000180025095e-35 0.1223404255319149 0.035830716614332299 0.47916666666666669 0.12658253165063307 0.6428571428571429 0.097500000000000017 0.16666666666666671 0.06291125822516451 0.027870557411148227 0.14689293785875721 0.35714285714285715 0.52659574468085113 0.15625000000000003 0.90206804136082741 0.52032040640812827 0.59375000000000011 0.13089261785235709 0.77654553091061829
decision_type=2 2 2 2 2 2 2 2 2 2 2 2 2 2 2 2 2 2 2 2 2 2 2 2 2
left_child=3 6 18 7 5 -5 22 -1 -6 11 -11 -10 -4 14 15 -14 -8 -18 19 -3 21 -21 23 -2 -25
right_child=1 2 12 4 8 -7 16 -9 9 10 -12 -13 13 -15 -16 -17 17 -19 -20 20 -22 -23 -24 24 -26
